,0,1,2,3,4,5,6,7,8,9,10,11,12,13,14,15,16,17,18,19
3500,-0.2,0.0,-0.2,0.0,0.2,0.0,0.0,0.0,0.2,0.0,0.0,-0.2,-0.2,0.2,0.2,0.2,0.0,0.0,-0.2,0.0
3501,-0.2,0.0,-0.2,0.0,0.2,0.0,0.0,0.0,0.2,0.0,0.0,-0.2,-0.2,0.2,0.2,0.2,0.0,0.0,-0.2,0.0
3502,-0.2,0.0,-0.2,0.0,0.2,0.0,0.0,0.0,0.0,0.0,0.0,-0.2,-0.2,0.2,0.2,0.2,0.0,0.2,-0.2,0.0
3503,-0.2,0.0,-0.2,0.2,0.2,0.0,0.0,0.0,0.0,0.0,0.0,-0.2,-0.2,0.2,0.0,0.2,0.0,0.2,-0.2,0.0
3504,0.0,-0.2,-0.2,0.2,0.2,0.0,0.0,0.0,0.0,0.0,0.0,-0.2,-0.2,0.0,0.0,0.2,0.0,0.2,-0.2,0.2
3505,0.0,-0.2,0.0,0.2,0.2,0.0,-0.2,0.0,0.0,0.0,0.0,-0.2,-0.2,0.0,0.0,0.2,0.0,0.2,-0.2,0.2
3506,0.0,-0.2,-0.2,0.0,0.2,0.0,-0.2,0.2,-0.2,0.0,0.0,-0.2,0.0,0.0,0.0,0.2,0.0,0.2,0.0,0.2
3507,0.0,0.0,0.0,0.0,0.0,0.0,0.0,0.0,0.0,0.0,0.0,0.0,0.0,0.0,0.0,0.0,0.0,0.0,0.0,0.0
3508,0.0,0.0,-0.2,0.0,0.2,0.0,-0.2,0.2,-0.2,0.0,0.0,-0.2,-0.2,0.0,0.0,0.2,0.0,0.2,0.0,0.2
3509,0.0,0.0,-0.2,0.0,0.2,0.0,-0.2,0.2,-0.2,0.0,0.0,-0.2,-0.2,0.0,0.0,0.2,0.0,0.2,0.0,0.2
3510,0.0,0.0,-0.2,0.0,0.2,0.0,-0.2,0.2,-0.2,0.0,0.0,-0.2,-0.2,0.0,0.0,0.2,0.0,0.2,0.0,0.2
3511,0.0,0.0,0.0,0.0,0.2,0.0,0.0,0.2,-0.2,0.0,-0.2,-0.2,-0.2,0.0,0.2,0.2,-0.2,0.0,0.0,0.2
3512,0.0,0.0,0.0,0.0,0.2,0.0,0.0,0.2,-0.2,0.0,0.0,-0.2,-0.2,0.0,0.2,0.2,-0.2,0.0,-0.2,0.2
3513,0.0,0.0,0.0,0.0,0.2,0.0,0.0,0.2,-0.2,0.0,0.0,-0.2,-0.2,0.0,0.2,0.2,-0.2,0.0,-0.2,0.2
3514,0.0,0.0,0.0,0.0,0.2,0.0,-0.2,0.2,-0.2,0.0,0.0,-0.2,-0.2,0.0,0.2,0.2,0.0,0.0,-0.2,0.2
3515,0.0,0.0,0.0,0.0,0.2,0.0,-0.2,0.2,-0.2,0.0,0.0,0.0,-0.2,0.0,0.2,0.2,-0.2,0.0,-0.2,0.2
3516,0.0,0.0,0.0,0.0,0.2,0.0,-0.2,0.2,-0.2,0.0,0.0,0.0,-0.2,0.0,0.2,0.2,-0.2,0.0,-0.2,0.2
3517,0.0,0.0,0.0,0.2,0.2,-0.2,-0.2,0.2,-0.2,0.0,0.0,0.0,-0.2,0.0,0.2,0.2,0.0,0.0,-0.2,0.0
3518,0.0,0.0,0.0,0.2,0.2,-0.2,-0.2,0.2,-0.2,0.0,0.0,0.0,0.0,-0.2,0.2,0.2,0.0,0.0,-0.2,0.0
3519,0.0,0.2,0.0,0.2,0.2,-0.2,-0.2,0.2,-0.2,0.0,0.0,0.0,0.0,-0.2,0.2,0.0,0.0,0.0,-0.2,0.0
3520,0.0,0.30000000000000004,0.0,0.30000000000000004,0.30000000000000004,-0.30000000000000004,-0.30000000000000004,0.30000000000000004,-0.30000000000000004,-0.30000000000000004,0.0,0.0,0.0,0.0,0.30000000000000004,0.0,0.0,0.0,-0.30000000000000004,0.0
3521,0.30000000000000004,0.30000000000000004,0.0,0.30000000000000004,0.30000000000000004,-0.30000000000000004,-0.30000000000000004,0.0,-0.30000000000000004,-0.30000000000000004,0.0,0.0,0.0,0.0,0.30000000000000004,0.0,0.0,0.0,-0.30000000000000004,0.0
3522,0.0,0.30000000000000004,0.0,0.0,0.30000000000000004,-0.30000000000000004,-0.30000000000000004,0.0,0.0,-0.30000000000000004,0.0,0.0,0.30000000000000004,0.0,0.30000000000000004,-0.30000000000000004,0.0,0.0,-0.30000000000000004,0.30000000000000004
3523,0.0,0.0,0.0,0.0,0.30000000000000004,-0.30000000000000004,-0.30000000000000004,0.30000000000000004,0.0,-0.30000000000000004,0.0,0.0,0.30000000000000004,0.0,0.30000000000000004,-0.30000000000000004,0.0,0.0,-0.30000000000000004,0.30000000000000004
3524,0.0,0.0,0.0,0.30000000000000004,0.30000000000000004,-0.30000000000000004,-0.30000000000000004,0.30000000000000004,0.0,-0.30000000000000004,0.0,0.0,0.30000000000000004,0.0,0.30000000000000004,-0.30000000000000004,0.0,0.0,-0.30000000000000004,0.0
3525,0.0,0.0,0.0,0.30000000000000004,0.30000000000000004,-0.30000000000000004,-0.30000000000000004,0.30000000000000004,0.0,-0.30000000000000004,0.0,0.0,0.30000000000000004,0.0,0.30000000000000004,-0.30000000000000004,0.0,0.0,-0.30000000000000004,0.0
3526,0.0,0.30000000000000004,0.0,0.30000000000000004,0.30000000000000004,0.0,-0.30000000000000004,0.0,0.0,-0.30000000000000004,0.0,0.0,0.30000000000000004,0.0,0.30000000000000004,-0.30000000000000004,0.0,-0.30000000000000004,-0.30000000000000004,0.0
3527,0.0,0.30000000000000004,0.30000000000000004,0.0,0.30000000000000004,0.0,-0.30000000000000004,0.0,0.0,-0.30000000000000004,0.0,0.0,0.30000000000000004,0.0,0.30000000000000004,-0.30000000000000004,0.0,-0.30000000000000004,-0.30000000000000004,0.0
3528,0.0,0.30000000000000004,0.0,0.0,0.30000000000000004,0.30000000000000004,0.0,0.0,0.0,-0.30000000000000004,0.0,0.0,0.30000000000000004,0.0,0.30000000000000004,-0.30000000000000004,0.0,-0.30000000000000004,-0.30000000000000004,-0.30000000000000004
3529,0.0,0.30000000000000004,0.30000000000000004,0.0,0.30000000000000004,0.30000000000000004,0.0,0.0,0.0,-0.30000000000000004,0.0,0.0,0.0,0.0,0.30000000000000004,-0.30000000000000004,0.0,-0.30000000000000004,-0.30000000000000004,-0.30000000000000004
3530,0.0,0.30000000000000004,0.30000000000000004,0.0,0.30000000000000004,0.30000000000000004,0.0,0.0,0.0,-0.30000000000000004,0.0,0.0,0.0,0.0,0.30000000000000004,-0.30000000000000004,0.0,-0.30000000000000004,-0.30000000000000004,-0.30000000000000004
3531,0.0,0.30000000000000004,0.30000000000000004,0.0,0.30000000000000004,0.30000000000000004,0.0,0.0,0.0,-0.30000000000000004,0.0,0.0,0.0,0.0,0.30000000000000004,-0.30000000000000004,0.0,-0.30000000000000004,-0.30000000000000004,-0.30000000000000004
3532,0.0,0.30000000000000004,0.30000000000000004,0.0,0.30000000000000004,0.30000000000000004,0.0,0.0,0.0,-0.30000000000000004,0.30000000000000004,0.0,0.0,0.0,0.0,-0.30000000000000004,0.0,-0.30000000000000004,-0.30000000000000004,-0.30000000000000004
3533,-0.30000000000000004,0.30000000000000004,0.30000000000000004,0.0,0.30000000000000004,0.30000000000000004,0.0,0.0,0.0,-0.30000000000000004,0.30000000000000004,0.0,0.0,0.0,0.0,-0.30000000000000004,0.0,0.0,-0.30000000000000004,-0.30000000000000004
3534,-0.30000000000000004,0.30000000000000004,0.30000000000000004,0.0,0.30000000000000004,0.30000000000000004,0.0,0.0,0.0,-0.30000000000000004,0.0,0.30000000000000004,0.0,0.0,0.0,-0.30000000000000004,0.0,0.0,-0.30000000000000004,-0.30000000000000004
3535,-0.30000000000000004,0.30000000000000004,0.30000000000000004,0.0,0.30000000000000004,0.0,0.0,0.0,0.0,-0.30000000000000004,0.0,0.30000000000000004,0.0,0.0,0.30000000000000004,-0.30000000000000004,0.0,-0.30000000000000004,-0.30000000000000004,0.0
3536,-0.30000000000000004,0.30000000000000004,0.30000000000000004,0.0,0.30000000000000004,0.0,0.0,0.0,0.0,-0.30000000000000004,0.0,0.30000000000000004,0.0,0.0,0.30000000000000004,-0.30000000000000004,0.0,-0.30000000000000004,-0.30000000000000004,0.0
3537,-0.30000000000000004,0.30000000000000004,0.30000000000000004,0.0,0.30000000000000004,0.0,0.0,0.0,0.0,-0.30000000000000004,0.0,0.30000000000000004,0.0,0.0,0.30000000000000004,-0.30000000000000004,0.0,-0.30000000000000004,-0.30000000000000004,0.0
3538,-0.30000000000000004,0.30000000000000004,0.0,0.0,0.30000000000000004,0.0,0.0,0.0,0.0,-0.30000000000000004,0.30000000000000004,0.30000000000000004,0.0,0.0,0.30000000000000004,-0.30000000000000004,0.0,-0.30000000000000004,-0.30000000000000004,0.0
3539,-0.30000000000000004,0.30000000000000004,0.0,0.0,0.30000000000000004,0.0,-0.30000000000000004,0.0,0.0,0.0,0.30000000000000004,0.30000000000000004,0.0,0.0,0.30000000000000004,-0.30000000000000004,0.0,-0.30000000000000004,-0.30000000000000004,0.0
3540,-0.30000000000000004,0.30000000000000004,0.0,0.0,0.30000000000000004,0.0,-0.30000000000000004,0.0,0.0,0.0,0.30000000000000004,0.30000000000000004,0.0,0.0,0.30000000000000004,-0.30000000000000004,0.0,-0.30000000000000004,-0.30000000000000004,0.0
3541,-0.30000000000000004,0.30000000000000004,0.0,0.0,0.30000000000000004,0.0,-0.30000000000000004,0.0,0.0,0.0,0.30000000000000004,0.30000000000000004,-0.30000000000000004,0.30000000000000004,0.0,-0.30000000000000004,0.0,0.0,-0.30000000000000004,0.0
3542,-0.30000000000000004,0.30000000000000004,0.0,0.0,0.30000000000000004,0.0,-0.30000000000000004,0.0,-0.30000000000000004,0.0,0.30000000000000004,0.30000000000000004,-0.30000000000000004,0.30000000000000004,0.0,-0.30000000000000004,0.0,0.0,0.0,0.0
3543,-0.30000000000000004,0.30000000000000004,0.0,0.0,0.30000000000000004,0.0,-0.30000000000000004,0.0,-0.30000000000000004,0.0,0.30000000000000004,0.30000000000000004,-0.30000000000000004,0.30000000000000004,0.0,-0.30000000000000004,0.0,0.0,0.0,0.0
3544,0.0,0.30000000000000004,0.0,0.0,0.30000000000000004,0.0,-0.30000000000000004,0.0,-0.30000000000000004,0.0,0.30000000000000004,0.30000000000000004,-0.30000000000000004,0.30000000000000004,0.0,-0.30000000000000004,0.0,0.0,0.0,-0.30000000000000004
3545,0.0,0.30000000000000004,-0.30000000000000004,0.0,0.30000000000000004,0.0,-0.30000000000000004,0.0,-0.30000000000000004,0.0,0.0,0.30000000000000004,-0.30000000000000004,0.30000000000000004,0.30000000000000004,0.0,0.0,0.0,0.0,-0.30000000000000004
3546,0.0,0.30000000000000004,-0.30000000000000004,0.0,0.30000000000000004,0.0,0.0,0.0,-0.30000000000000004,0.0,0.0,0.30000000000000004,-0.30000000000000004,0.30000000000000004,0.30000000000000004,0.0,-0.30000000000000004,0.0,0.0,-0.30000000000000004
3547,0.0,0.30000000000000004,-0.30000000000000004,0.0,0.30000000000000004,0.0,0.0,0.0,-0.30000000000000004,0.0,0.0,0.30000000000000004,-0.30000000000000004,0.30000000000000004,0.30000000000000004,0.0,-0.30000000000000004,0.0,0.0,-0.30000000000000004
3548,0.0,0.30000000000000004,-0.30000000000000004,0.0,0.30000000000000004,-0.30000000000000004,0.0,0.0,-0.30000000000000004,0.0,0.0,0.30000000000000004,-0.30000000000000004,0.30000000000000004,0.30000000000000004,0.0,-0.30000000000000004,0.0,0.0,0.0
3549,0.0,0.30000000000000004,-0.30000000000000004,0.0,0.30000000000000004,-0.30000000000000004,0.0,0.0,-0.30000000000000004,0.0,0.0,0.0,0.0,0.30000000000000004,0.30000000000000004,-0.30000000000000004,-0.30000000000000004,0.30000000000000004,0.0,0.0
3550,0.0,0.30000000000000004,0.0,0.0,0.30000000000000004,-0.30000000000000004,0.0,0.0,-0.30000000000000004,0.0,0.0,0.0,0.0,0.30000000000000004,0.30000000000000004,-0.30000000000000004,-0.30000000000000004,0.30000000000000004,-0.30000000000000004,0.0
3551,0.0,0.30000000000000004,0.0,0.0,0.30000000000000004,-0.30000000000000004,0.0,0.0,-0.30000000000000004,0.0,0.0,0.0,0.0,0.30000000000000004,0.30000000000000004,-0.30000000000000004,-0.30000000000000004,0.30000000000000004,-0.30000000000000004,0.0
3552,0.0,0.0,-0.30000000000000004,0.0,0.30000000000000004,-0.30000000000000004,0.0,0.30000000000000004,0.0,0.0,0.0,0.0,0.0,0.30000000000000004,0.30000000000000004,-0.30000000000000004,-0.30000000000000004,0.30000000000000004,-0.30000000000000004,0.0
3553,0.0,0.0,0.0,0.0,0.30000000000000004,-0.30000000000000004,0.0,0.30000000000000004,0.0,0.0,0.0,-0.30000000000000004,0.0,0.30000000000000004,0.30000000000000004,-0.30000000000000004,-0.30000000000000004,0.30000000000000004,-0.30000000000000004,0.0
3554,0.0,-0.30000000000000004,0.0,0.0,0.30000000000000004,-0.30000000000000004,0.0,0.30000000000000004,0.0,0.0,0.0,-0.30000000000000004,0.0,0.30000000000000004,0.30000000000000004,-0.30000000000000004,0.0,0.30000000000000004,-0.30000000000000004,0.0
3555,0.0,-0.30000000000000004,0.0,0.30000000000000004,0.30000000000000004,-0.30000000000000004,0.0,0.30000000000000004,0.0,0.0,0.0,-0.30000000000000004,0.0,0.0,0.30000000000000004,-0.30000000000000004,0.0,0.30000000000000004,-0.30000000000000004,0.0
3556,0.0,-0.30000000000000004,0.0,0.30000000000000004,0.30000000000000004,-0.30000000000000004,0.0,0.30000000000000004,0.0,0.0,0.0,-0.30000000000000004,0.0,0.0,0.30000000000000004,-0.30000000000000004,0.0,0.30000000000000004,-0.30000000000000004,0.0
3557,0.0,-0.30000000000000004,0.0,0.30000000000000004,0.30000000000000004,-0.30000000000000004,0.0,0.30000000000000004,0.0,0.0,0.0,-0.30000000000000004,0.0,0.0,0.30000000000000004,-0.30000000000000004,0.0,0.30000000000000004,-0.30000000000000004,0.0
3558,0.0,-0.30000000000000004,-0.30000000000000004,0.30000000000000004,0.30000000000000004,-0.30000000000000004,0.0,0.30000000000000004,0.0,0.0,0.0,-0.30000000000000004,0.0,0.0,0.30000000000000004,-0.30000000000000004,0.0,0.30000000000000004,0.0,0.0
3559,0.0,-0.30000000000000004,0.0,0.30000000000000004,0.30000000000000004,-0.30000000000000004,0.0,0.30000000000000004,0.0,0.0,0.0,-0.30000000000000004,0.0,0.0,0.30000000000000004,-0.30000000000000004,0.0,0.30000000000000004,-0.30000000000000004,0.0
3560,0.0,-0.30000000000000004,0.0,0.30000000000000004,0.30000000000000004,-0.30000000000000004,-0.30000000000000004,0.30000000000000004,0.0,0.0,0.0,-0.30000000000000004,0.0,0.0,0.30000000000000004,-0.30000000000000004,0.0,0.30000000000000004,0.0,0.0
3561,0.0,-0.30000000000000004,0.0,0.30000000000000004,0.30000000000000004,0.0,-0.30000000000000004,0.30000000000000004,0.0,-0.30000000000000004,0.0,-0.30000000000000004,0.0,0.0,0.30000000000000004,-0.30000000000000004,0.0,0.30000000000000004,0.0,0.0
3562,0.0,-0.30000000000000004,0.0,0.30000000000000004,0.0,0.0,-0.30000000000000004,0.30000000000000004,0.0,-0.30000000000000004,0.30000000000000004,-0.30000000000000004,0.0,0.0,0.30000000000000004,-0.30000000000000004,0.0,0.30000000000000004,0.0,0.0
3563,0.0,-0.30000000000000004,0.0,0.30000000000000004,0.0,0.0,-0.30000000000000004,0.30000000000000004,0.0,-0.30000000000000004,0.30000000000000004,-0.30000000000000004,0.0,0.0,0.30000000000000004,-0.30000000000000004,0.0,0.30000000000000004,0.0,0.0
3564,0.0,-0.30000000000000004,0.0,0.30000000000000004,0.0,0.0,-0.30000000000000004,0.30000000000000004,0.0,-0.30000000000000004,0.0,-0.30000000000000004,0.0,0.0,0.30000000000000004,-0.30000000000000004,0.0,0.30000000000000004,0.0,0.30000000000000004
3565,0.0,-0.30000000000000004,0.0,0.30000000000000004,0.0,0.0,-0.30000000000000004,0.30000000000000004,0.0,-0.30000000000000004,0.0,-0.30000000000000004,0.0,0.0,0.30000000000000004,-0.30000000000000004,0.0,0.30000000000000004,0.0,0.30000000000000004
3566,0.0,-0.30000000000000004,-0.30000000000000004,0.30000000000000004,0.30000000000000004,0.0,-0.30000000000000004,0.30000000000000004,0.0,-0.30000000000000004,0.0,-0.30000000000000004,0.0,0.0,0.0,0.0,0.0,0.30000000000000004,0.0,0.30000000000000004
3567,0.0,-0.30000000000000004,-0.30000000000000004,0.30000000000000004,0.30000000000000004,0.0,-0.30000000000000004,0.30000000000000004,0.0,-0.30000000000000004,0.0,-0.30000000000000004,0.0,0.0,0.0,0.0,0.0,0.30000000000000004,0.0,0.30000000000000004
3568,0.0,-0.30000000000000004,-0.30000000000000004,0.30000000000000004,0.30000000000000004,0.0,-0.30000000000000004,0.30000000000000004,0.0,-0.30000000000000004,0.0,-0.30000000000000004,0.0,0.0,0.0,0.0,0.0,0.30000000000000004,0.0,0.30000000000000004
3569,0.0,-0.30000000000000004,-0.30000000000000004,0.30000000000000004,0.30000000000000004,0.0,-0.30000000000000004,0.30000000000000004,0.0,-0.30000000000000004,0.0,-0.30000000000000004,0.0,0.0,0.0,0.0,0.0,0.30000000000000004,0.0,0.30000000000000004
3570,-0.30000000000000004,-0.30000000000000004,0.0,0.30000000000000004,0.30000000000000004,0.0,-0.30000000000000004,0.30000000000000004,0.0,-0.30000000000000004,0.0,-0.30000000000000004,0.0,0.0,0.0,0.0,0.0,0.30000000000000004,0.0,0.30000000000000004
3571,-0.30000000000000004,-0.30000000000000004,0.0,0.30000000000000004,0.30000000000000004,0.0,-0.30000000000000004,0.0,0.0,0.0,-0.30000000000000004,-0.30000000000000004,0.30000000000000004,0.0,0.0,0.30000000000000004,0.0,0.30000000000000004,0.0,0.0
3572,-0.30000000000000004,0.0,-0.30000000000000004,0.30000000000000004,0.30000000000000004,0.0,-0.30000000000000004,0.0,0.0,0.0,-0.30000000000000004,-0.30000000000000004,0.30000000000000004,0.0,0.0,0.30000000000000004,0.0,0.30000000000000004,0.0,0.0
3573,-0.30000000000000004,0.0,0.0,0.30000000000000004,0.30000000000000004,-0.30000000000000004,-0.30000000000000004,0.0,0.0,0.0,-0.30000000000000004,-0.30000000000000004,0.30000000000000004,0.0,0.0,0.30000000000000004,0.0,0.30000000000000004,0.0,0.0
3574,-0.30000000000000004,0.0,-0.30000000000000004,0.30000000000000004,0.30000000000000004,-0.30000000000000004,0.0,0.0,0.0,0.0,-0.30000000000000004,0.0,0.30000000000000004,-0.30000000000000004,0.0,0.30000000000000004,0.0,0.30000000000000004,0.0,0.0
3575,-0.30000000000000004,0.0,-0.30000000000000004,0.30000000000000004,0.30000000000000004,-0.30000000000000004,0.0,0.0,0.0,0.0,-0.30000000000000004,0.0,0.30000000000000004,-0.30000000000000004,0.0,0.30000000000000004,0.0,0.30000000000000004,0.0,0.0
3576,-0.30000000000000004,0.0,-0.30000000000000004,0.30000000000000004,0.30000000000000004,-0.30000000000000004,0.0,0.0,0.0,0.0,-0.30000000000000004,0.0,0.30000000000000004,-0.30000000000000004,0.0,0.30000000000000004,0.0,0.30000000000000004,0.0,0.0
3577,-0.30000000000000004,0.0,-0.30000000000000004,0.30000000000000004,0.0,-0.30000000000000004,0.0,0.0,0.0,0.0,-0.30000000000000004,0.0,0.30000000000000004,-0.30000000000000004,0.30000000000000004,0.30000000000000004,0.0,0.30000000000000004,0.0,0.0
3578,0.0,0.0,-0.30000000000000004,0.30000000000000004,0.0,-0.30000000000000004,0.0,0.0,0.0,0.0,-0.30000000000000004,0.0,0.0,-0.30000000000000004,0.30000000000000004,0.30000000000000004,-0.30000000000000004,0.30000000000000004,0.30000000000000004,0.0
3579,0.0,0.0,-0.30000000000000004,0.30000000000000004,0.0,-0.30000000000000004,0.0,0.0,0.0,0.0,-0.30000000000000004,0.0,0.0,-0.30000000000000004,0.30000000000000004,0.30000000000000004,-0.30000000000000004,0.30000000000000004,0.30000000000000004,0.0
3580,0.0,0.30000000000000004,0.0,0.30000000000000004,0.0,-0.30000000000000004,0.0,0.0,0.0,-0.30000000000000004,-0.30000000000000004,0.0,0.0,0.0,0.30000000000000004,0.30000000000000004,-0.30000000000000004,0.0,0.30000000000000004,-0.30000000000000004
3581,0.0,0.30000000000000004,0.0,0.30000000000000004,0.0,-0.30000000000000004,0.0,0.0,0.0,-0.30000000000000004,-0.30000000000000004,0.0,-0.30000000000000004,0.0,0.30000000000000004,0.30000000000000004,0.0,0.30000000000000004,0.0,-0.30000000000000004
3582,0.0,0.30000000000000004,0.0,0.30000000000000004,0.0,-0.30000000000000004,0.30000000000000004,0.0,0.0,-0.30000000000000004,-0.30000000000000004,0.0,-0.30000000000000004,0.0,0.30000000000000004,0.30000000000000004,0.0,0.0,0.0,-0.30000000000000004
3583,0.0,0.0,0.0,0.0,0.0,0.0,0.0,0.0,0.0,0.0,0.0,0.0,0.0,0.0,0.0,0.0,0.0,0.0,0.0,0.0
3584,0.0,0.0,0.0,0.30000000000000004,0.30000000000000004,0.0,0.0,-0.30000000000000004,0.0,-0.30000000000000004,-0.30000000000000004,0.0,-0.30000000000000004,0.0,0.30000000000000004,0.30000000000000004,0.0,0.30000000000000004,0.0,-0.30000000000000004
3585,0.0,0.0,0.0,0.30000000000000004,0.30000000000000004,0.0,0.30000000000000004,-0.30000000000000004,0.0,-0.30000000000000004,-0.30000000000000004,0.0,-0.30000000000000004,0.0,0.30000000000000004,0.0,0.0,0.30000000000000004,0.0,-0.30000000000000004
3586,0.0,0.0,0.0,0.30000000000000004,0.30000000000000004,-0.30000000000000004,0.30000000000000004,0.0,0.0,-0.30000000000000004,-0.30000000000000004,0.0,-0.30000000000000004,0.0,0.30000000000000004,0.0,0.0,0.30000000000000004,0.0,-0.30000000000000004
3587,0.0,0.0,0.30000000000000004,0.30000000000000004,0.30000000000000004,-0.30000000000000004,0.0,0.0,0.0,-0.30000000000000004,-0.30000000000000004,0.0,-0.30000000000000004,0.0,0.30000000000000004,0.0,0.0,0.30000000000000004,0.0,-0.30000000000000004
3588,0.0,0.0,0.0,0.30000000000000004,0.30000000000000004,-0.30000000000000004,0.0,0.0,0.0,-0.30000000000000004,-0.30000000000000004,0.30000000000000004,-0.30000000000000004,0.0,0.30000000000000004,0.0,0.0,0.30000000000000004,0.0,-0.30000000000000004
3589,0.0,0.0,0.0,0.30000000000000004,0.30000000000000004,-0.30000000000000004,0.0,0.0,0.0,-0.30000000000000004,-0.30000000000000004,0.30000000000000004,-0.30000000000000004,0.0,0.30000000000000004,0.0,0.0,0.30000000000000004,0.0,-0.30000000000000004
3590,0.0,0.0,0.0,0.30000000000000004,0.30000000000000004,-0.30000000000000004,0.0,0.0,0.0,0.0,-0.30000000000000004,0.30000000000000004,-0.30000000000000004,-0.30000000000000004,0.30000000000000004,0.0,0.0,0.30000000000000004,0.0,-0.30000000000000004
3591,0.0,0.0,0.0,0.30000000000000004,0.0,-0.30000000000000004,0.0,0.0,0.0,0.0,-0.30000000000000004,0.30000000000000004,-0.30000000000000004,-0.30000000000000004,0.30000000000000004,0.0,0.30000000000000004,0.30000000000000004,0.0,-0.30000000000000004
3592,0.0,0.0,0.0,0.30000000000000004,0.0,-0.30000000000000004,0.0,0.0,0.0,0.0,-0.30000000000000004,0.30000000000000004,-0.30000000000000004,0.0,0.30000000000000004,0.0,0.30000000000000004,0.30000000000000004,-0.30000000000000004,-0.30000000000000004
3593,0.0,0.0,0.0,0.0,0.0,-0.30000000000000004,0.0,0.0,0.0,0.0,-0.30000000000000004,0.30000000000000004,-0.30000000000000004,0.0,0.30000000000000004,0.30000000000000004,0.30000000000000004,0.30000000000000004,-0.30000000000000004,-0.30000000000000004
3594,0.0,0.30000000000000004,0.0,0.0,0.0,-0.30000000000000004,0.0,0.0,0.0,0.0,-0.30000000000000004,0.30000000000000004,-0.30000000000000004,0.0,0.30000000000000004,0.0,0.30000000000000004,0.30000000000000004,-0.30000000000000004,-0.30000000000000004
3595,0.0,0.30000000000000004,0.0,0.0,0.0,-0.30000000000000004,0.0,0.0,0.0,-0.30000000000000004,-0.30000000000000004,0.30000000000000004,-0.30000000000000004,0.0,0.30000000000000004,0.0,0.30000000000000004,0.30000000000000004,-0.30000000000000004,0.0
3596,0.0,0.30000000000000004,0.0,0.0,0.0,-0.30000000000000004,0.0,0.0,-0.30000000000000004,-0.30000000000000004,0.0,0.0,-0.30000000000000004,0.0,0.30000000000000004,0.0,0.30000000000000004,0.30000000000000004,-0.30000000000000004,0.30000000000000004
3597,0.0,0.30000000000000004,0.0,0.0,0.0,-0.30000000000000004,0.0,0.0,-0.30000000000000004,-0.30000000000000004,0.0,0.0,0.0,-0.30000000000000004,0.30000000000000004,0.0,0.30000000000000004,0.30000000000000004,-0.30000000000000004,0.30000000000000004
3598,0.0,0.30000000000000004,0.0,0.0,-0.30000000000000004,0.0,0.0,0.0,-0.30000000000000004,-0.30000000000000004,0.0,0.0,0.0,-0.30000000000000004,0.30000000000000004,0.0,0.30000000000000004,0.30000000000000004,-0.30000000000000004,0.30000000000000004
3599,0.0,0.30000000000000004,0.0,0.0,-0.30000000000000004,0.0,0.0,0.0,-0.30000000000000004,-0.30000000000000004,0.0,0.30000000000000004,0.0,-0.30000000000000004,0.30000000000000004,0.0,0.0,0.30000000000000004,-0.30000000000000004,0.30000000000000004
3600,0.0,0.30000000000000004,0.0,0.0,-0.30000000000000004,0.0,0.0,0.0,-0.30000000000000004,-0.30000000000000004,0.0,0.30000000000000004,0.0,0.0,0.30000000000000004,-0.30000000000000004,0.0,0.30000000000000004,-0.30000000000000004,0.30000000000000004
3601,0.0,0.30000000000000004,0.0,0.0,-0.30000000000000004,0.0,0.0,0.0,-0.30000000000000004,-0.30000000000000004,0.0,0.30000000000000004,0.0,0.0,0.30000000000000004,-0.30000000000000004,0.0,0.30000000000000004,-0.30000000000000004,0.30000000000000004
3602,0.0,0.30000000000000004,0.0,0.0,-0.30000000000000004,0.0,0.0,0.0,-0.30000000000000004,-0.30000000000000004,0.0,0.30000000000000004,0.0,0.0,0.30000000000000004,-0.30000000000000004,0.0,0.30000000000000004,-0.30000000000000004,0.30000000000000004
3603,0.0,0.30000000000000004,0.0,0.0,-0.30000000000000004,0.0,0.0,0.0,-0.30000000000000004,-0.30000000000000004,0.0,0.30000000000000004,0.0,0.0,0.30000000000000004,-0.30000000000000004,0.0,0.30000000000000004,-0.30000000000000004,0.30000000000000004
3604,0.0,0.30000000000000004,0.0,0.0,-0.30000000000000004,0.0,0.0,0.0,-0.30000000000000004,-0.30000000000000004,0.30000000000000004,0.30000000000000004,0.0,0.0,0.30000000000000004,-0.30000000000000004,0.0,0.0,-0.30000000000000004,0.30000000000000004
3605,0.0,0.30000000000000004,0.0,0.0,0.0,0.0,-0.30000000000000004,0.0,-0.30000000000000004,-0.30000000000000004,0.30000000000000004,0.30000000000000004,0.0,0.0,0.30000000000000004,-0.30000000000000004,0.0,0.0,-0.30000000000000004,0.30000000000000004
3606,0.0,0.30000000000000004,0.0,0.0,0.0,0.0,-0.30000000000000004,0.0,-0.30000000000000004,-0.30000000000000004,0.30000000000000004,0.30000000000000004,0.0,0.0,0.30000000000000004,-0.30000000000000004,0.0,0.0,-0.30000000000000004,0.30000000000000004
3607,0.0,0.30000000000000004,0.0,0.0,-0.30000000000000004,0.0,-0.30000000000000004,0.0,-0.30000000000000004,0.0,0.30000000000000004,0.30000000000000004,0.0,0.0,0.30000000000000004,-0.30000000000000004,0.0,0.0,-0.30000000000000004,0.30000000000000004
3608,0.0,0.30000000000000004,0.0,0.0,-0.30000000000000004,0.0,-0.30000000000000004,0.0,-0.30000000000000004,0.0,0.30000000000000004,0.30000000000000004,0.0,0.0,0.30000000000000004,-0.30000000000000004,0.0,0.0,-0.30000000000000004,0.30000000000000004
3609,0.0,0.30000000000000004,0.0,0.0,-0.30000000000000004,0.0,-0.30000000000000004,0.0,0.0,0.0,0.30000000000000004,0.30000000000000004,-0.30000000000000004,0.0,0.30000000000000004,-0.30000000000000004,0.0,0.0,-0.30000000000000004,0.30000000000000004
3610,0.0,0.30000000000000004,0.0,0.0,-0.30000000000000004,0.0,-0.30000000000000004,0.0,0.0,0.0,0.30000000000000004,0.30000000000000004,-0.30000000000000004,0.0,0.30000000000000004,-0.30000000000000004,0.0,0.0,-0.30000000000000004,0.30000000000000004
3611,0.0,0.30000000000000004,-0.30000000000000004,0.0,0.0,0.0,-0.30000000000000004,0.0,0.0,0.0,0.30000000000000004,0.30000000000000004,-0.30000000000000004,0.0,0.30000000000000004,0.0,0.0,-0.30000000000000004,-0.30000000000000004,0.30000000000000004
3612,0.0,0.30000000000000004,0.0,0.0,0.0,0.0,-0.30000000000000004,0.0,0.0,0.0,0.30000000000000004,0.30000000000000004,-0.30000000000000004,0.0,0.30000000000000004,-0.30000000000000004,0.0,-0.30000000000000004,-0.30000000000000004,0.30000000000000004
3613,0.0,0.30000000000000004,0.0,0.0,0.0,0.0,-0.30000000000000004,0.0,0.0,0.0,0.30000000000000004,0.30000000000000004,-0.30000000000000004,0.0,0.30000000000000004,-0.30000000000000004,0.0,-0.30000000000000004,-0.30000000000000004,0.30000000000000004
3614,0.0,0.30000000000000004,0.0,0.0,0.0,0.0,-0.30000000000000004,0.0,0.0,0.0,0.30000000000000004,0.30000000000000004,-0.30000000000000004,0.0,0.30000000000000004,-0.30000000000000004,0.0,-0.30000000000000004,-0.30000000000000004,0.30000000000000004
3615,0.0,0.30000000000000004,0.0,0.0,0.0,0.0,-0.30000000000000004,0.0,0.0,0.0,0.30000000000000004,0.30000000000000004,-0.30000000000000004,0.0,0.30000000000000004,-0.30000000000000004,0.0,-0.30000000000000004,-0.30000000000000004,0.30000000000000004
3616,0.0,0.0,0.0,0.0,0.0,0.30000000000000004,-0.30000000000000004,0.0,0.0,0.0,0.30000000000000004,0.30000000000000004,-0.30000000000000004,0.0,0.30000000000000004,-0.30000000000000004,0.0,-0.30000000000000004,-0.30000000000000004,0.30000000000000004
3617,0.0,0.0,0.0,0.0,0.0,0.0,0.0,0.0,0.0,0.0,0.0,0.0,0.0,0.0,0.0,0.0,0.0,0.0,0.0,0.0
3618,0.0,0.30000000000000004,0.0,0.0,-0.30000000000000004,0.0,-0.30000000000000004,0.0,0.0,0.0,0.30000000000000004,0.30000000000000004,-0.30000000000000004,0.0,0.30000000000000004,-0.30000000000000004,0.0,-0.30000000000000004,0.0,0.30000000000000004
3619,0.0,0.30000000000000004,0.0,0.0,0.0,0.0,-0.30000000000000004,0.0,0.0,0.0,0.30000000000000004,0.30000000000000004,-0.30000000000000004,0.0,0.30000000000000004,-0.30000000000000004,-0.30000000000000004,-0.30000000000000004,0.0,0.30000000000000004
3620,0.0,0.30000000000000004,0.0,0.0,0.0,0.0,-0.30000000000000004,0.0,0.0,0.0,0.30000000000000004,0.30000000000000004,-0.30000000000000004,0.0,0.30000000000000004,-0.30000000000000004,-0.30000000000000004,-0.30000000000000004,0.0,0.30000000000000004
3621,0.0,0.2972615286144356,0.0,0.0,0.0,0.0,-0.2972615286144356,-0.2972615286144356,0.0,0.0,0.0,0.2972615286144356,0.2972615286144356,0.0,0.2972615286144356,-0.2972615286144356,-0.2972615286144356,-0.2972615286144356,0.0,0.2972615286144356
3622,0.0,0.30000000000000004,0.0,-0.30000000000000004,0.0,0.0,0.0,-0.30000000000000004,0.0,0.0,0.0,0.30000000000000004,0.30000000000000004,0.0,0.30000000000000004,-0.30000000000000004,-0.30000000000000004,-0.30000000000000004,0.0,0.30000000000000004
3623,0.0,0.30000000000000004,-0.30000000000000004,-0.30000000000000004,0.0,0.0,0.30000000000000004,-0.30000000000000004,0.0,0.0,0.0,0.30000000000000004,0.30000000000000004,0.0,0.0,-0.30000000000000004,0.0,-0.30000000000000004,0.0,0.30000000000000004
3624,0.0,0.30000000000000004,-0.30000000000000004,-0.30000000000000004,0.0,0.0,0.30000000000000004,-0.30000000000000004,0.30000000000000004,0.0,0.0,0.30000000000000004,0.30000000000000004,0.0,0.0,-0.30000000000000004,0.0,-0.30000000000000004,0.0,0.0
3625,0.0,0.30000000000000004,0.0,-0.30000000000000004,0.0,0.0,0.30000000000000004,-0.30000000000000004,0.30000000000000004,0.0,0.0,0.30000000000000004,0.30000000000000004,0.0,0.0,-0.30000000000000004,0.0,-0.30000000000000004,0.0,-0.30000000000000004
3626,0.0,0.30000000000000004,0.0,-0.30000000000000004,0.0,0.0,0.30000000000000004,-0.30000000000000004,0.30000000000000004,0.0,0.0,0.30000000000000004,0.30000000000000004,0.0,0.0,-0.30000000000000004,0.0,-0.30000000000000004,0.0,-0.30000000000000004
3627,0.0,0.30000000000000004,-0.30000000000000004,0.0,0.30000000000000004,0.0,0.30000000000000004,-0.30000000000000004,0.0,-0.30000000000000004,0.0,0.30000000000000004,0.30000000000000004,0.0,0.0,-0.30000000000000004,0.0,0.0,0.0,-0.30000000000000004
3628,0.0,0.30000000000000004,-0.30000000000000004,0.0,0.30000000000000004,0.0,0.30000000000000004,-0.30000000000000004,0.0,-0.30000000000000004,0.0,0.30000000000000004,0.30000000000000004,0.0,0.0,-0.30000000000000004,0.0,0.0,0.0,-0.30000000000000004
3629,0.0,0.2880409798974885,-0.2880409798974885,0.0,0.2880409798974885,0.0,0.2880409798974885,0.0,0.0,-0.2880409798974885,0.0,0.2880409798974885,0.2880409798974885,0.0,0.0,-0.2880409798974885,-0.2880409798974885,0.0,0.0,-0.2880409798974885
3630,0.0,0.2803673046229875,0.0,0.0,0.2803673046229875,-0.2803673046229875,0.2803673046229875,0.0,-0.2803673046229875,0.0,0.0,0.2803673046229875,0.2803673046229875,0.0,0.0,-0.2803673046229875,-0.2803673046229875,0.0,0.0,-0.2803673046229875
3631,0.0,0.27896175479248847,0.0,0.0,0.27896175479248847,-0.27896175479248847,0.27896175479248847,0.0,-0.27896175479248847,0.0,0.0,0.27896175479248847,0.27896175479248847,0.0,0.0,-0.27896175479248847,-0.27896175479248847,0.0,0.0,-0.27896175479248847
3632,0.0,0.27350105496734795,0.0,0.0,0.27350105496734795,-0.27350105496734795,0.27350105496734795,0.0,-0.27350105496734795,0.0,0.0,0.0,0.27350105496734795,0.0,0.0,-0.27350105496734795,-0.27350105496734795,0.27350105496734795,0.0,-0.27350105496734795
3633,0.0,0.2742017954349328,0.0,0.0,0.2742017954349328,-0.2742017954349328,0.2742017954349328,0.0,-0.2742017954349328,0.0,0.0,0.0,0.2742017954349328,0.0,0.0,-0.2742017954349328,-0.2742017954349328,0.2742017954349328,0.0,-0.2742017954349328
3634,0.0,0.27226637584714314,0.0,0.0,0.27226637584714314,-0.27226637584714314,0.27226637584714314,0.0,0.0,0.0,0.0,0.0,0.27226637584714314,0.0,0.0,-0.27226637584714314,-0.27226637584714314,0.27226637584714314,-0.27226637584714314,-0.27226637584714314
3635,0.0,0.0,0.0,0.0,0.0,0.0,0.0,0.0,0.0,0.0,0.0,0.0,0.0,0.0,0.0,0.0,0.0,0.0,0.0,0.0
3636,0.0,0.0,0.0,0.0,0.0,0.0,0.0,0.0,0.0,0.0,0.0,0.0,0.0,0.0,0.0,0.0,0.0,0.0,0.0,0.0
3637,0.0,0.252250413958408,-0.252250413958408,0.0,0.252250413958408,-0.252250413958408,0.252250413958408,0.0,0.0,0.0,0.0,-0.252250413958408,0.252250413958408,0.0,0.0,0.0,0.0,0.252250413958408,-0.252250413958408,-0.252250413958408
3638,0.0,0.2542561313723289,-0.2542561313723289,0.0,0.2542561313723289,-0.2542561313723289,0.2542561313723289,0.0,0.0,0.0,0.0,-0.2542561313723289,0.2542561313723289,0.0,0.0,0.0,0.0,0.2542561313723289,-0.2542561313723289,-0.2542561313723289
3639,0.0,0.2576584049330388,-0.2576584049330388,0.0,0.2576584049330388,-0.2576584049330388,0.2576584049330388,0.0,0.0,0.0,0.0,-0.2576584049330388,0.2576584049330388,0.0,0.0,0.0,0.0,0.2576584049330388,-0.2576584049330388,-0.2576584049330388
3640,0.0,0.2887913549284289,-0.2887913549284289,0.0,0.2887913549284289,-0.2887913549284289,0.2887913549284289,0.0,0.0,0.0,0.0,-0.2887913549284289,0.2887913549284289,0.0,0.0,0.0,0.0,0.2887913549284289,-0.2887913549284289,-0.2887913549284289
3641,0.0,0.30000000000000004,-0.30000000000000004,0.0,0.30000000000000004,-0.30000000000000004,0.30000000000000004,0.0,0.0,0.0,0.0,-0.30000000000000004,0.30000000000000004,0.0,0.0,0.0,0.0,0.30000000000000004,-0.30000000000000004,-0.30000000000000004
3642,0.0,0.0,-0.30000000000000004,0.0,0.30000000000000004,-0.30000000000000004,0.30000000000000004,0.0,0.0,0.0,0.0,-0.30000000000000004,0.30000000000000004,0.0,0.0,0.0,0.30000000000000004,0.30000000000000004,-0.30000000000000004,-0.30000000000000004
3643,0.0,0.0,-0.30000000000000004,0.0,0.30000000000000004,-0.30000000000000004,0.30000000000000004,0.0,-0.30000000000000004,0.0,0.0,-0.30000000000000004,0.30000000000000004,0.0,0.0,0.0,0.30000000000000004,0.30000000000000004,-0.30000000000000004,0.0
3644,0.0,0.0,-0.30000000000000004,0.0,0.30000000000000004,-0.30000000000000004,0.30000000000000004,0.0,-0.30000000000000004,0.0,0.0,-0.30000000000000004,0.30000000000000004,0.0,0.0,0.0,0.30000000000000004,0.30000000000000004,-0.30000000000000004,0.0
3645,0.0,0.0,-0.30000000000000004,0.0,0.30000000000000004,-0.30000000000000004,0.0,0.0,-0.30000000000000004,0.0,0.0,-0.30000000000000004,0.30000000000000004,0.0,0.30000000000000004,0.0,0.30000000000000004,0.30000000000000004,-0.30000000000000004,0.0
3646,0.0,-0.30000000000000004,-0.30000000000000004,0.0,0.30000000000000004,-0.30000000000000004,0.0,0.0,0.0,0.0,0.0,-0.30000000000000004,0.30000000000000004,0.0,0.30000000000000004,0.0,0.30000000000000004,0.30000000000000004,-0.30000000000000004,0.0
3647,0.0,-0.30000000000000004,-0.30000000000000004,0.0,0.30000000000000004,-0.30000000000000004,0.0,0.0,0.0,0.0,0.0,-0.30000000000000004,0.30000000000000004,0.0,0.30000000000000004,0.0,0.30000000000000004,0.30000000000000004,-0.30000000000000004,0.0
3648,0.0,-0.30000000000000004,-0.30000000000000004,0.0,0.30000000000000004,0.0,0.0,0.30000000000000004,-0.30000000000000004,0.0,0.0,-0.30000000000000004,0.0,0.0,0.30000000000000004,0.0,0.30000000000000004,0.30000000000000004,-0.30000000000000004,0.0
3649,0.0,0.0,0.0,0.0,0.0,0.0,0.0,0.0,0.0,0.0,0.0,0.0,0.0,0.0,0.0,0.0,0.0,0.0,0.0,0.0
3650,0.0,-0.30000000000000004,-0.30000000000000004,0.0,0.30000000000000004,0.0,-0.30000000000000004,0.30000000000000004,0.0,0.0,0.0,-0.30000000000000004,0.0,0.0,0.30000000000000004,0.0,0.30000000000000004,0.30000000000000004,-0.30000000000000004,0.0
3651,0.0,-0.29357255243280983,-0.29357255243280983,0.0,0.29357255243280983,0.0,-0.29357255243280983,0.29357255243280983,0.0,0.0,0.0,-0.29357255243280983,0.0,0.0,0.29357255243280983,0.0,0.29357255243280983,0.29357255243280983,-0.29357255243280983,0.0
3652,0.0,-0.2950930486560866,-0.2950930486560866,0.0,0.2950930486560866,0.0,-0.2950930486560866,0.2950930486560866,0.0,0.0,0.0,-0.2950930486560866,0.0,0.2950930486560866,0.0,0.0,0.2950930486560866,0.2950930486560866,-0.2950930486560866,0.0
3653,0.0,0.0,0.0,0.0,0.0,0.0,0.0,0.0,0.0,0.0,0.0,0.0,0.0,0.0,0.0,0.0,0.0,0.0,0.0,0.0
3654,-0.27916197635926315,-0.27916197635926315,0.0,0.0,0.0,0.0,-0.27916197635926315,0.27916197635926315,0.0,0.0,0.0,-0.27916197635926315,0.0,0.27916197635926315,0.27916197635926315,0.0,0.27916197635926315,0.27916197635926315,-0.27916197635926315,0.0
3655,-0.2878702071645599,-0.2878702071645599,0.0,0.0,0.0,0.0,-0.2878702071645599,0.2878702071645599,0.0,0.0,0.0,-0.2878702071645599,0.0,0.2878702071645599,0.0,0.2878702071645599,0.2878702071645599,0.2878702071645599,-0.2878702071645599,0.0
3656,-0.30000000000000004,-0.30000000000000004,0.0,0.0,0.0,-0.30000000000000004,-0.30000000000000004,0.30000000000000004,0.0,0.0,0.0,0.0,0.0,0.30000000000000004,0.0,0.30000000000000004,0.30000000000000004,0.30000000000000004,-0.30000000000000004,0.0
3657,-0.30000000000000004,-0.30000000000000004,0.0,0.0,0.0,-0.30000000000000004,-0.30000000000000004,0.0,0.0,0.0,0.0,0.0,0.30000000000000004,0.30000000000000004,0.0,0.30000000000000004,0.30000000000000004,0.30000000000000004,-0.30000000000000004,0.0
3658,-0.30000000000000004,-0.30000000000000004,0.0,0.0,0.0,-0.30000000000000004,-0.30000000000000004,0.0,0.0,0.0,0.0,0.0,0.30000000000000004,0.30000000000000004,0.0,0.30000000000000004,0.30000000000000004,0.30000000000000004,-0.30000000000000004,0.0
3659,-0.2652573086978897,0.0,0.0,0.2652573086978897,-0.2652573086978897,-0.2652573086978897,-0.2652573086978897,0.0,0.0,0.0,0.0,0.0,0.2652573086978897,0.2652573086978897,0.0,0.2652573086978897,0.2652573086978897,0.0,-0.2652573086978897,0.0
3660,-0.26541282063229704,0.0,-0.26541282063229704,0.26541282063229704,-0.26541282063229704,-0.26541282063229704,-0.26541282063229704,0.0,0.0,0.0,0.0,0.0,0.26541282063229704,0.26541282063229704,0.0,0.26541282063229704,0.26541282063229704,0.0,0.0,0.0
3661,-0.2660124397575025,0.0,0.0,0.0,-0.2660124397575025,0.0,-0.2660124397575025,0.0,0.0,-0.2660124397575025,0.2660124397575025,0.0,0.2660124397575025,0.2660124397575025,0.0,0.2660124397575025,0.2660124397575025,-0.2660124397575025,0.0,0.0
3662,-0.26935179162629375,0.0,0.0,0.0,-0.26935179162629375,0.0,-0.26935179162629375,0.0,0.0,-0.26935179162629375,0.0,0.26935179162629375,0.26935179162629375,0.26935179162629375,0.0,0.26935179162629375,0.26935179162629375,-0.26935179162629375,0.0,0.0
3663,-0.269197801402369,0.0,0.0,0.0,-0.269197801402369,0.0,-0.269197801402369,0.0,0.0,-0.269197801402369,0.0,0.269197801402369,0.269197801402369,0.269197801402369,0.0,0.269197801402369,0.269197801402369,-0.269197801402369,0.0,0.0
3664,-0.2716774953471345,0.0,0.0,0.0,-0.2716774953471345,0.0,-0.2716774953471345,0.0,0.0,-0.2716774953471345,0.0,0.2716774953471345,0.2716774953471345,0.2716774953471345,0.0,0.2716774953471345,0.2716774953471345,-0.2716774953471345,0.0,0.0
3665,-0.26168580648148027,0.0,0.0,0.0,-0.26168580648148027,0.0,-0.26168580648148027,0.0,0.0,-0.26168580648148027,0.0,0.26168580648148027,0.26168580648148027,0.26168580648148027,0.0,0.26168580648148027,0.26168580648148027,-0.26168580648148027,0.0,0.0
3666,-0.2673959881180635,0.0,0.0,0.0,-0.2673959881180635,0.0,-0.2673959881180635,0.0,0.0,-0.2673959881180635,0.0,0.2673959881180635,0.2673959881180635,0.2673959881180635,0.0,0.2673959881180635,0.2673959881180635,-0.2673959881180635,0.0,0.0
3667,-0.2683327620047726,0.0,0.0,0.0,-0.2683327620047726,0.0,0.0,0.0,0.0,-0.2683327620047726,0.0,0.2683327620047726,0.2683327620047726,0.2683327620047726,-0.2683327620047726,0.2683327620047726,0.2683327620047726,-0.2683327620047726,0.0,0.0
3668,0.0,0.2682500285209254,0.0,-0.2682500285209254,-0.2682500285209254,0.0,0.0,0.0,0.0,-0.2682500285209254,0.0,0.2682500285209254,0.0,0.2682500285209254,-0.2682500285209254,0.2682500285209254,0.2682500285209254,-0.2682500285209254,0.0,0.0
3669,0.0,0.28944452173092505,0.0,-0.28944452173092505,-0.28944452173092505,0.0,0.0,0.0,0.0,-0.28944452173092505,0.0,0.28944452173092505,0.0,0.28944452173092505,-0.28944452173092505,0.28944452173092505,0.28944452173092505,-0.28944452173092505,0.0,0.0
3670,0.0,0.28021618771810125,0.0,-0.28021618771810125,-0.28021618771810125,0.0,0.0,-0.28021618771810125,0.0,0.0,0.0,0.28021618771810125,0.0,0.28021618771810125,-0.28021618771810125,0.28021618771810125,0.28021618771810125,-0.28021618771810125,0.0,0.0
3671,0.0,0.30000000000000004,-0.30000000000000004,-0.30000000000000004,-0.30000000000000004,0.0,0.0,0.0,0.0,0.0,0.0,0.30000000000000004,0.0,0.30000000000000004,-0.30000000000000004,0.30000000000000004,0.30000000000000004,-0.30000000000000004,0.0,0.0
3672,0.0,0.30000000000000004,-0.30000000000000004,-0.30000000000000004,-0.30000000000000004,0.0,0.0,0.0,0.0,0.0,0.0,0.30000000000000004,0.0,0.30000000000000004,-0.30000000000000004,0.30000000000000004,0.30000000000000004,-0.30000000000000004,0.0,0.0
3673,0.0,0.30000000000000004,-0.30000000000000004,-0.30000000000000004,-0.30000000000000004,0.0,0.0,0.0,0.0,0.0,0.30000000000000004,0.30000000000000004,0.0,0.0,-0.30000000000000004,0.30000000000000004,0.30000000000000004,-0.30000000000000004,0.0,0.0
3674,0.30000000000000004,0.30000000000000004,-0.30000000000000004,-0.30000000000000004,-0.30000000000000004,0.0,0.0,0.0,0.0,0.0,0.30000000000000004,0.0,0.0,0.0,-0.30000000000000004,0.30000000000000004,0.30000000000000004,-0.30000000000000004,0.0,0.0
3675,0.30000000000000004,0.30000000000000004,0.0,-0.30000000000000004,-0.30000000000000004,0.0,0.0,-0.30000000000000004,0.0,0.0,0.30000000000000004,0.0,0.0,0.0,-0.30000000000000004,0.30000000000000004,0.30000000000000004,-0.30000000000000004,0.0,0.0
3676,0.30000000000000004,0.30000000000000004,0.0,-0.30000000000000004,-0.30000000000000004,0.0,0.0,-0.30000000000000004,0.0,0.0,0.30000000000000004,0.0,0.0,0.0,-0.30000000000000004,0.30000000000000004,0.30000000000000004,-0.30000000000000004,0.0,0.0
3677,0.30000000000000004,0.30000000000000004,0.0,-0.30000000000000004,-0.30000000000000004,0.0,0.0,-0.30000000000000004,0.0,0.0,0.30000000000000004,0.0,0.0,0.0,-0.30000000000000004,0.30000000000000004,0.30000000000000004,-0.30000000000000004,0.0,0.0
3678,0.30000000000000004,0.30000000000000004,0.0,-0.30000000000000004,-0.30000000000000004,0.0,0.0,-0.30000000000000004,0.0,0.0,0.30000000000000004,0.0,0.0,0.0,-0.30000000000000004,0.30000000000000004,0.30000000000000004,-0.30000000000000004,0.0,0.0
3679,0.30000000000000004,0.0,0.0,-0.30000000000000004,-0.30000000000000004,0.0,0.30000000000000004,-0.30000000000000004,0.0,0.0,0.30000000000000004,0.0,0.0,0.0,-0.30000000000000004,0.30000000000000004,0.30000000000000004,-0.30000000000000004,0.0,0.0
3680,0.30000000000000004,0.0,-0.30000000000000004,-0.30000000000000004,-0.30000000000000004,0.0,0.30000000000000004,-0.30000000000000004,0.0,0.0,0.30000000000000004,0.0,0.0,0.0,0.0,0.30000000000000004,0.30000000000000004,-0.30000000000000004,0.0,0.0
3681,0.30000000000000004,0.0,-0.30000000000000004,-0.30000000000000004,-0.30000000000000004,0.0,0.30000000000000004,-0.30000000000000004,0.0,0.0,0.30000000000000004,0.0,0.0,0.0,0.0,0.30000000000000004,0.30000000000000004,-0.30000000000000004,0.0,0.0
3682,0.30000000000000004,0.0,-0.30000000000000004,-0.30000000000000004,0.0,0.0,0.30000000000000004,-0.30000000000000004,0.0,0.0,0.30000000000000004,0.0,0.0,-0.30000000000000004,0.0,0.30000000000000004,0.30000000000000004,-0.30000000000000004,0.0,0.0
3683,0.30000000000000004,0.0,-0.30000000000000004,-0.30000000000000004,0.0,0.30000000000000004,0.30000000000000004,-0.30000000000000004,0.0,0.0,0.30000000000000004,0.0,0.0,-0.30000000000000004,0.0,0.0,0.30000000000000004,-0.30000000000000004,0.0,0.0
3684,0.30000000000000004,0.0,-0.30000000000000004,-0.30000000000000004,0.0,0.0,0.30000000000000004,0.0,0.30000000000000004,0.0,0.30000000000000004,0.0,0.0,-0.30000000000000004,0.0,-0.30000000000000004,0.30000000000000004,-0.30000000000000004,0.0,0.0
3685,0.30000000000000004,0.0,-0.30000000000000004,-0.30000000000000004,0.0,0.0,0.30000000000000004,0.0,0.30000000000000004,0.0,0.30000000000000004,0.0,0.0,-0.30000000000000004,0.0,-0.30000000000000004,0.30000000000000004,-0.30000000000000004,0.0,0.0
3686,0.0,0.0,-0.30000000000000004,-0.30000000000000004,0.0,0.0,0.30000000000000004,0.0,0.30000000000000004,0.0,0.30000000000000004,0.30000000000000004,0.0,-0.30000000000000004,0.0,-0.30000000000000004,0.30000000000000004,-0.30000000000000004,0.0,0.0
3687,0.0,-0.18225614314138128,-0.18225614314138128,0.0,0.0,0.18225614314138128,0.0,0.0,0.18225614314138128,0.0,0.18225614314138128,0.18225614314138128,0.0,-0.18225614314138128,-0.18225614314138128,-0.18225614314138128,0.0,0.0,0.18225614314138128,0.0
3688,0.0,-0.18106593219979344,-0.18106593219979344,0.0,0.18106593219979344,0.18106593219979344,0.0,0.0,0.18106593219979344,0.0,0.18106593219979344,0.0,0.0,-0.18106593219979344,0.0,-0.18106593219979344,-0.18106593219979344,0.0,0.18106593219979344,0.0
3689,0.0,-0.17941569894453346,-0.17941569894453346,0.0,0.17941569894453346,0.0,0.0,0.17941569894453346,0.17941569894453346,0.17941569894453346,0.0,0.0,0.0,-0.17941569894453346,0.0,-0.17941569894453346,-0.17941569894453346,0.0,0.17941569894453346,0.0
3690,0.0,-0.1853104218703523,0.0,0.0,0.1853104218703523,0.0,0.0,0.1853104218703523,0.1853104218703523,0.1853104218703523,-0.1853104218703523,0.0,0.0,0.0,-0.1853104218703523,-0.1853104218703523,-0.1853104218703523,0.0,0.1853104218703523,0.0
3691,0.18541891723486043,-0.18541891723486043,0.0,0.0,0.0,0.0,0.0,0.18541891723486043,0.18541891723486043,0.18541891723486043,-0.18541891723486043,0.0,0.0,0.0,-0.18541891723486043,-0.18541891723486043,-0.18541891723486043,0.0,0.18541891723486043,0.0
3692,0.18051327925471747,-0.18051327925471747,0.0,0.0,0.0,0.0,0.0,0.18051327925471747,0.18051327925471747,0.18051327925471747,-0.18051327925471747,0.0,0.18051327925471747,0.0,-0.18051327925471747,-0.18051327925471747,-0.18051327925471747,0.0,0.0,0.0
3693,0.18067523538228064,-0.18067523538228064,0.0,0.0,0.0,0.0,0.0,0.18067523538228064,0.18067523538228064,0.18067523538228064,-0.18067523538228064,0.0,0.18067523538228064,0.0,-0.18067523538228064,-0.18067523538228064,-0.18067523538228064,0.0,0.0,0.0
3694,0.18038159220173894,-0.18038159220173894,0.0,0.0,0.0,0.0,0.0,0.18038159220173894,0.18038159220173894,0.18038159220173894,-0.18038159220173894,0.0,0.18038159220173894,0.0,-0.18038159220173894,-0.18038159220173894,-0.18038159220173894,0.0,0.0,0.0
3695,0.17921735721556986,0.0,0.0,0.0,0.0,0.17921735721556986,-0.17921735721556986,0.17921735721556986,0.0,0.17921735721556986,-0.17921735721556986,0.0,0.17921735721556986,0.0,-0.17921735721556986,0.0,-0.17921735721556986,0.0,-0.17921735721556986,0.0
3696,0.1743368163406825,0.0,0.0,0.0,0.0,0.1743368163406825,-0.1743368163406825,0.1743368163406825,0.0,0.0,-0.1743368163406825,0.1743368163406825,0.1743368163406825,0.0,-0.1743368163406825,0.0,-0.1743368163406825,0.0,-0.1743368163406825,0.0
3697,0.17347112409863144,0.0,0.0,0.0,0.0,0.17347112409863144,-0.17347112409863144,0.17347112409863144,0.0,0.0,-0.17347112409863144,0.17347112409863144,0.17347112409863144,0.0,-0.17347112409863144,0.0,-0.17347112409863144,0.0,-0.17347112409863144,0.0
3698,0.1704867465264912,0.0,0.0,0.0,0.0,0.1704867465264912,-0.1704867465264912,0.1704867465264912,0.0,0.0,-0.1704867465264912,0.1704867465264912,0.1704867465264912,0.0,-0.1704867465264912,0.0,-0.1704867465264912,0.0,-0.1704867465264912,0.0
3699,0.0,0.0,0.0,0.0,0.0,0.0,0.0,0.0,0.0,0.0,0.0,0.0,0.0,0.0,0.0,0.0,0.0,0.0,0.0,0.0
3700,0.0,0.0,0.0,0.0,0.0,0.16083152100761738,-0.16083152100761738,0.16083152100761738,0.16083152100761738,0.0,-0.16083152100761738,0.16083152100761738,0.16083152100761738,0.0,-0.16083152100761738,0.0,-0.16083152100761738,0.0,-0.16083152100761738,0.0
3701,0.0,0.0,-0.16165474868677487,0.0,0.0,0.16165474868677487,0.0,0.16165474868677487,0.16165474868677487,0.0,-0.16165474868677487,0.16165474868677487,0.16165474868677487,0.0,-0.16165474868677487,0.0,-0.16165474868677487,0.0,-0.16165474868677487,0.0
3702,0.0,0.0,-0.16317703732802782,0.0,0.0,0.16317703732802782,0.0,0.16317703732802782,0.16317703732802782,0.0,-0.16317703732802782,0.16317703732802782,0.16317703732802782,-0.16317703732802782,0.0,0.0,-0.16317703732802782,0.0,-0.16317703732802782,0.0
3703,0.0,0.0,-0.1629830558243266,0.0,0.0,0.1629830558243266,0.0,0.0,0.1629830558243266,0.0,-0.1629830558243266,0.1629830558243266,0.1629830558243266,-0.1629830558243266,0.0,0.0,-0.1629830558243266,0.1629830558243266,-0.1629830558243266,0.0
3704,0.0,0.0,-0.1634108396635681,0.0,0.0,0.0,0.0,0.1634108396635681,0.1634108396635681,0.0,-0.1634108396635681,0.1634108396635681,0.1634108396635681,-0.1634108396635681,0.0,0.0,-0.1634108396635681,0.1634108396635681,-0.1634108396635681,0.0
3705,0.0,0.0,-0.16340670175531324,0.0,0.0,0.0,0.0,0.16340670175531324,0.16340670175531324,0.0,-0.16340670175531324,0.16340670175531324,0.16340670175531324,-0.16340670175531324,0.0,0.0,-0.16340670175531324,0.16340670175531324,-0.16340670175531324,0.0
3706,0.0,0.0,-0.16488625461790163,0.0,0.0,0.0,0.0,0.16488625461790163,0.16488625461790163,0.0,-0.16488625461790163,0.16488625461790163,0.16488625461790163,-0.16488625461790163,0.0,0.0,-0.16488625461790163,0.16488625461790163,-0.16488625461790163,0.0
3707,0.0,0.0,-0.2889835680663609,0.0,0.0,0.2889835680663609,0.0,0.2889835680663609,0.0,0.0,-0.2889835680663609,0.2889835680663609,0.2889835680663609,-0.2889835680663609,0.0,0.0,-0.2889835680663609,0.2889835680663609,-0.2889835680663609,0.0
3708,0.0,0.2892649390905649,-0.2892649390905649,0.0,0.0,0.2892649390905649,0.0,0.2892649390905649,0.0,0.0,-0.2892649390905649,0.2892649390905649,0.2892649390905649,-0.2892649390905649,0.0,0.0,-0.2892649390905649,0.0,-0.2892649390905649,0.0
3709,0.0,0.0,0.0,0.0,0.30000000000000004,0.30000000000000004,0.0,0.30000000000000004,0.0,0.0,-0.30000000000000004,0.30000000000000004,0.30000000000000004,-0.30000000000000004,0.0,-0.30000000000000004,-0.30000000000000004,0.0,-0.30000000000000004,0.0
3710,0.0,0.30000000000000004,0.0,0.0,0.0,0.30000000000000004,0.0,0.30000000000000004,0.0,0.0,-0.30000000000000004,0.30000000000000004,0.30000000000000004,-0.30000000000000004,0.0,-0.30000000000000004,-0.30000000000000004,0.0,-0.30000000000000004,0.0
3711,0.0,0.30000000000000004,0.0,0.0,0.30000000000000004,0.0,0.0,0.30000000000000004,0.0,0.0,-0.30000000000000004,0.30000000000000004,0.30000000000000004,-0.30000000000000004,0.0,-0.30000000000000004,-0.30000000000000004,0.0,-0.30000000000000004,0.0
3712,0.0,0.30000000000000004,0.0,0.0,0.30000000000000004,0.30000000000000004,0.0,0.0,0.0,0.0,-0.30000000000000004,0.30000000000000004,0.30000000000000004,-0.30000000000000004,0.0,-0.30000000000000004,-0.30000000000000004,0.0,-0.30000000000000004,0.0
3713,0.0,0.30000000000000004,0.0,0.0,0.30000000000000004,0.30000000000000004,0.30000000000000004,0.0,0.0,0.0,-0.30000000000000004,0.30000000000000004,0.0,-0.30000000000000004,0.0,-0.30000000000000004,-0.30000000000000004,0.0,-0.30000000000000004,0.0
3714,0.0,0.30000000000000004,-0.30000000000000004,0.0,0.30000000000000004,0.30000000000000004,0.30000000000000004,0.0,0.0,-0.30000000000000004,0.0,0.30000000000000004,0.0,-0.30000000000000004,0.0,0.0,-0.30000000000000004,0.0,-0.30000000000000004,0.0
3715,0.0,0.30000000000000004,-0.30000000000000004,0.0,0.30000000000000004,0.30000000000000004,0.30000000000000004,0.0,0.0,-0.30000000000000004,0.0,0.30000000000000004,0.0,-0.30000000000000004,0.0,-0.30000000000000004,0.0,0.0,-0.30000000000000004,0.0
3716,0.30000000000000004,0.30000000000000004,-0.30000000000000004,0.0,0.30000000000000004,0.30000000000000004,0.30000000000000004,0.0,0.0,-0.30000000000000004,0.0,0.0,0.0,-0.30000000000000004,0.0,-0.30000000000000004,0.0,0.0,-0.30000000000000004,0.0
3717,0.30000000000000004,0.30000000000000004,-0.30000000000000004,0.0,0.30000000000000004,0.30000000000000004,0.30000000000000004,0.0,0.0,-0.30000000000000004,0.0,0.0,0.0,-0.30000000000000004,0.0,-0.30000000000000004,0.0,0.0,-0.30000000000000004,0.0
3718,0.30000000000000004,0.0,-0.30000000000000004,0.0,0.30000000000000004,0.30000000000000004,0.30000000000000004,-0.30000000000000004,0.0,-0.30000000000000004,0.0,0.0,0.0,-0.30000000000000004,0.0,0.0,0.0,0.0,-0.30000000000000004,0.30000000000000004
3719,0.30000000000000004,0.0,-0.30000000000000004,0.0,0.30000000000000004,0.30000000000000004,0.30000000000000004,-0.30000000000000004,0.0,-0.30000000000000004,0.0,0.0,0.0,0.0,0.0,-0.30000000000000004,0.0,0.0,-0.30000000000000004,0.30000000000000004
3720,0.0,0.0,-0.30000000000000004,0.0,0.30000000000000004,0.30000000000000004,0.30000000000000004,-0.30000000000000004,0.0,0.0,0.0,-0.30000000000000004,0.0,0.0,0.30000000000000004,-0.30000000000000004,0.0,0.0,-0.30000000000000004,0.30000000000000004
3721,0.30000000000000004,0.0,-0.30000000000000004,0.0,0.30000000000000004,0.30000000000000004,0.30000000000000004,-0.30000000000000004,0.0,0.0,0.0,-0.30000000000000004,0.0,0.0,0.0,-0.30000000000000004,0.0,0.0,-0.30000000000000004,0.30000000000000004
3722,0.0,0.0,-0.30000000000000004,0.0,0.30000000000000004,0.30000000000000004,0.30000000000000004,-0.30000000000000004,0.0,0.0,0.0,-0.30000000000000004,-0.30000000000000004,0.0,0.0,0.0,0.30000000000000004,0.0,-0.30000000000000004,0.30000000000000004
3723,0.30000000000000004,0.0,-0.30000000000000004,0.0,0.30000000000000004,0.30000000000000004,0.30000000000000004,-0.30000000000000004,0.0,0.0,0.0,-0.30000000000000004,-0.30000000000000004,0.0,0.0,0.0,0.30000000000000004,0.0,-0.30000000000000004,0.0
3724,0.30000000000000004,0.0,0.0,0.30000000000000004,0.0,0.30000000000000004,0.30000000000000004,-0.30000000000000004,0.0,0.0,0.0,-0.30000000000000004,-0.30000000000000004,-0.30000000000000004,0.0,0.0,0.30000000000000004,0.0,-0.30000000000000004,0.0
3725,0.30000000000000004,0.0,0.0,0.30000000000000004,0.0,0.30000000000000004,0.30000000000000004,-0.30000000000000004,0.0,0.0,0.0,-0.30000000000000004,-0.30000000000000004,-0.30000000000000004,0.0,0.0,0.30000000000000004,0.0,-0.30000000000000004,0.0
3726,0.30000000000000004,-0.30000000000000004,0.0,0.30000000000000004,-0.30000000000000004,0.0,0.30000000000000004,0.0,0.0,0.0,0.30000000000000004,-0.30000000000000004,0.0,-0.30000000000000004,0.0,0.0,0.30000000000000004,0.0,-0.30000000000000004,0.0
3727,0.30000000000000004,-0.30000000000000004,0.30000000000000004,0.30000000000000004,-0.30000000000000004,0.0,0.30000000000000004,0.0,0.0,0.0,0.0,-0.30000000000000004,0.0,-0.30000000000000004,0.0,0.0,0.30000000000000004,0.0,-0.30000000000000004,0.0
3728,0.1704792980972349,-0.1704792980972349,0.1704792980972349,0.0,-0.1704792980972349,0.0,0.1704792980972349,-0.1704792980972349,0.0,0.0,0.0,-0.1704792980972349,0.0,0.1704792980972349,0.0,0.0,0.1704792980972349,0.0,-0.1704792980972349,0.0
3729,0.17056459635807228,-0.17056459635807228,0.17056459635807228,0.0,-0.17056459635807228,0.0,0.17056459635807228,0.0,0.0,0.0,0.0,-0.17056459635807228,0.0,0.17056459635807228,-0.17056459635807228,0.0,0.17056459635807228,0.0,-0.17056459635807228,0.0
3730,0.17099467272258378,-0.17099467272258378,0.17099467272258378,0.0,-0.17099467272258378,0.0,0.17099467272258378,0.0,0.0,0.0,0.0,-0.17099467272258378,0.0,0.17099467272258378,-0.17099467272258378,0.0,0.17099467272258378,0.0,-0.17099467272258378,0.0
3731,0.0,-0.170951954448759,0.170951954448759,0.0,-0.170951954448759,0.0,0.170951954448759,0.0,0.0,0.0,0.0,0.0,0.0,0.170951954448759,-0.170951954448759,0.170951954448759,0.170951954448759,0.0,-0.170951954448759,-0.170951954448759
3732,0.0,-0.16907156734014384,0.16907156734014384,0.0,0.0,0.0,0.16907156734014384,0.0,0.0,0.0,0.0,0.0,0.0,0.16907156734014384,-0.16907156734014384,0.16907156734014384,0.16907156734014384,-0.16907156734014384,-0.16907156734014384,-0.16907156734014384
3733,0.0,0.0,0.16947820698861732,0.0,-0.16947820698861732,0.0,0.16947820698861732,0.0,0.0,0.0,0.0,0.0,0.0,0.16947820698861732,-0.16947820698861732,0.16947820698861732,0.16947820698861732,-0.16947820698861732,-0.16947820698861732,-0.16947820698861732
3734,0.0,0.0,0.16956355995755712,0.0,-0.16956355995755712,0.0,0.16956355995755712,0.0,0.0,0.0,0.0,0.16956355995755712,0.0,0.16956355995755712,-0.16956355995755712,0.0,0.16956355995755712,-0.16956355995755712,-0.16956355995755712,-0.16956355995755712
3735,0.0,0.0,0.16750898782179008,0.0,-0.16750898782179008,0.0,0.0,0.0,0.0,0.0,0.0,0.16750898782179008,0.0,0.16750898782179008,-0.16750898782179008,0.16750898782179008,0.16750898782179008,-0.16750898782179008,-0.16750898782179008,-0.16750898782179008
3736,0.0,0.0,0.167607740355036,0.0,-0.167607740355036,0.0,0.0,0.0,0.0,0.0,0.0,0.167607740355036,0.0,0.167607740355036,-0.167607740355036,0.167607740355036,0.167607740355036,-0.167607740355036,-0.167607740355036,-0.167607740355036
3737,0.0,0.0,0.0,0.0,0.0,0.0,0.0,0.0,0.0,0.0,0.0,0.0,0.0,0.0,0.0,0.0,0.0,0.0,0.0,0.0
3738,0.0,0.1615280928735927,0.0,0.0,-0.1615280928735927,0.1615280928735927,0.0,0.0,0.0,0.0,0.0,0.1615280928735927,0.0,0.1615280928735927,-0.1615280928735927,0.0,0.1615280928735927,-0.1615280928735927,-0.1615280928735927,-0.1615280928735927
3739,0.0,0.16173494496131835,0.0,0.0,-0.16173494496131835,0.16173494496131835,0.0,0.0,0.0,0.0,0.0,0.16173494496131835,0.0,0.16173494496131835,-0.16173494496131835,0.0,0.16173494496131835,-0.16173494496131835,-0.16173494496131835,-0.16173494496131835
3740,0.0,0.16122936528544332,0.0,0.0,-0.16122936528544332,0.16122936528544332,0.0,0.0,0.0,0.0,0.0,0.16122936528544332,0.0,0.16122936528544332,-0.16122936528544332,0.0,0.16122936528544332,-0.16122936528544332,-0.16122936528544332,-0.16122936528544332
3741,0.0,0.16008969844426318,0.0,0.0,0.0,0.16008969844426318,-0.16008969844426318,0.0,0.0,0.0,0.0,0.16008969844426318,0.0,0.16008969844426318,-0.16008969844426318,0.0,0.16008969844426318,-0.16008969844426318,-0.16008969844426318,-0.16008969844426318
3742,0.0,0.16006085821763416,0.0,0.0,0.0,0.16006085821763416,-0.16006085821763416,0.0,0.0,0.0,0.0,0.16006085821763416,0.0,0.16006085821763416,-0.16006085821763416,0.0,0.16006085821763416,-0.16006085821763416,-0.16006085821763416,-0.16006085821763416
3743,0.0,0.16005696948783182,0.0,0.0,0.0,0.16005696948783182,-0.16005696948783182,0.0,0.0,0.0,0.0,0.16005696948783182,0.0,0.16005696948783182,-0.16005696948783182,0.0,0.16005696948783182,-0.16005696948783182,-0.16005696948783182,-0.16005696948783182
3744,0.0,0.15968741942577674,0.0,0.0,0.0,0.15968741942577674,-0.15968741942577674,0.0,0.0,0.0,0.0,0.15968741942577674,0.0,0.15968741942577674,-0.15968741942577674,0.0,0.15968741942577674,-0.15968741942577674,-0.15968741942577674,-0.15968741942577674
3745,0.0,0.15708484319009913,0.0,0.0,0.0,0.15708484319009913,-0.15708484319009913,0.0,0.0,0.0,0.0,0.15708484319009913,0.0,0.15708484319009913,-0.15708484319009913,0.0,0.15708484319009913,-0.15708484319009913,-0.15708484319009913,-0.15708484319009913
3746,0.0,0.15686008448620034,0.0,0.0,0.0,0.15686008448620034,-0.15686008448620034,0.0,-0.15686008448620034,0.0,0.0,0.15686008448620034,0.0,0.15686008448620034,0.0,0.0,0.15686008448620034,-0.15686008448620034,-0.15686008448620034,-0.15686008448620034
3747,0.0,0.15665930167664185,0.0,0.0,0.0,0.15665930167664185,-0.15665930167664185,-0.15665930167664185,-0.15665930167664185,0.0,-0.15665930167664185,0.15665930167664185,0.0,0.15665930167664185,0.0,0.0,0.15665930167664185,0.0,0.0,-0.15665930167664185
3748,0.0,0.30000000000000004,0.0,0.0,0.0,0.30000000000000004,-0.30000000000000004,-0.30000000000000004,-0.30000000000000004,0.0,-0.30000000000000004,0.30000000000000004,0.0,0.30000000000000004,0.0,0.0,0.30000000000000004,0.0,0.0,-0.30000000000000004
3749,0.0,0.30000000000000004,0.0,0.0,0.0,0.30000000000000004,-0.30000000000000004,-0.30000000000000004,-0.30000000000000004,0.0,-0.30000000000000004,0.30000000000000004,0.0,0.30000000000000004,0.0,0.0,0.30000000000000004,0.0,0.0,-0.30000000000000004
3750,0.0,0.30000000000000004,0.0,0.0,0.0,0.30000000000000004,-0.30000000000000004,-0.30000000000000004,-0.30000000000000004,0.0,-0.30000000000000004,0.30000000000000004,0.0,0.30000000000000004,0.0,0.0,0.30000000000000004,0.0,0.0,-0.30000000000000004
3751,0.0,0.30000000000000004,0.30000000000000004,0.0,0.0,0.30000000000000004,0.0,-0.30000000000000004,-0.30000000000000004,-0.30000000000000004,-0.30000000000000004,0.30000000000000004,-0.30000000000000004,0.30000000000000004,0.0,0.0,0.0,0.0,0.0,0.0
3752,0.0,0.30000000000000004,0.30000000000000004,0.0,0.0,0.30000000000000004,0.0,-0.30000000000000004,-0.30000000000000004,0.0,-0.30000000000000004,0.30000000000000004,-0.30000000000000004,0.30000000000000004,-0.30000000000000004,0.0,0.0,0.0,0.0,0.0
3753,0.30000000000000004,0.30000000000000004,0.0,0.0,0.0,0.30000000000000004,0.0,-0.30000000000000004,-0.30000000000000004,-0.30000000000000004,-0.30000000000000004,0.30000000000000004,0.0,0.30000000000000004,-0.30000000000000004,0.0,0.0,0.0,0.0,0.0
3754,0.30000000000000004,0.30000000000000004,0.0,0.0,0.0,0.30000000000000004,0.0,-0.30000000000000004,-0.30000000000000004,-0.30000000000000004,-0.30000000000000004,0.0,0.0,0.30000000000000004,-0.30000000000000004,0.0,0.0,0.0,0.0,0.30000000000000004
3755,0.30000000000000004,0.30000000000000004,0.0,0.0,0.30000000000000004,0.30000000000000004,0.0,-0.30000000000000004,-0.30000000000000004,-0.30000000000000004,-0.30000000000000004,0.0,0.0,0.30000000000000004,-0.30000000000000004,0.0,0.0,0.0,0.0,0.0
3756,0.30000000000000004,0.30000000000000004,0.0,0.0,0.30000000000000004,0.30000000000000004,0.0,-0.30000000000000004,-0.30000000000000004,-0.30000000000000004,-0.30000000000000004,-0.30000000000000004,0.0,0.0,0.0,0.0,0.0,0.0,0.0,0.30000000000000004
3757,0.0,0.30000000000000004,0.0,0.0,0.30000000000000004,0.30000000000000004,0.0,-0.30000000000000004,-0.30000000000000004,-0.30000000000000004,-0.30000000000000004,-0.30000000000000004,0.0,0.0,0.0,0.0,0.0,0.0,0.30000000000000004,0.30000000000000004
3758,0.0,0.0,0.0,0.0,0.30000000000000004,0.30000000000000004,0.30000000000000004,-0.30000000000000004,-0.30000000000000004,-0.30000000000000004,-0.30000000000000004,-0.30000000000000004,0.0,0.0,0.0,0.0,0.0,0.0,0.30000000000000004,0.30000000000000004
3759,0.0,0.0,0.0,0.30000000000000004,0.30000000000000004,0.0,0.30000000000000004,-0.30000000000000004,-0.30000000000000004,-0.30000000000000004,-0.30000000000000004,-0.30000000000000004,0.0,0.0,0.0,0.0,0.0,0.0,0.30000000000000004,0.30000000000000004
3760,0.0,0.0,0.0,0.30000000000000004,0.30000000000000004,0.0,0.30000000000000004,-0.30000000000000004,-0.30000000000000004,0.0,-0.30000000000000004,-0.30000000000000004,-0.30000000000000004,0.0,0.0,0.0,0.0,0.0,0.30000000000000004,0.30000000000000004
3761,0.0,0.0,0.0,0.0,0.30000000000000004,0.0,0.30000000000000004,-0.30000000000000004,-0.30000000000000004,0.0,-0.30000000000000004,-0.30000000000000004,-0.30000000000000004,0.0,0.30000000000000004,0.0,0.0,0.0,0.30000000000000004,0.30000000000000004
3762,0.0,0.0,0.0,0.0,0.30000000000000004,0.0,0.30000000000000004,-0.30000000000000004,0.0,0.0,-0.30000000000000004,-0.30000000000000004,-0.30000000000000004,-0.30000000000000004,0.30000000000000004,0.0,0.0,0.0,0.30000000000000004,0.30000000000000004
3763,0.0,0.0,0.0,0.0,0.30000000000000004,-0.30000000000000004,0.30000000000000004,-0.30000000000000004,0.0,0.0,-0.30000000000000004,-0.30000000000000004,-0.30000000000000004,0.0,0.30000000000000004,0.0,0.0,0.0,0.30000000000000004,0.30000000000000004
3764,0.0,0.0,-0.30000000000000004,-0.30000000000000004,0.30000000000000004,-0.30000000000000004,0.30000000000000004,0.0,0.0,0.0,0.0,0.0,-0.30000000000000004,0.0,0.30000000000000004,0.0,0.0,-0.30000000000000004,0.30000000000000004,0.30000000000000004
3765,0.0,0.0,-0.30000000000000004,-0.30000000000000004,0.30000000000000004,-0.30000000000000004,0.30000000000000004,0.0,0.0,0.0,0.0,0.0,-0.30000000000000004,0.0,0.0,0.0,0.30000000000000004,-0.30000000000000004,0.30000000000000004,0.30000000000000004
3766,0.0,0.0,-0.30000000000000004,-0.30000000000000004,0.30000000000000004,-0.30000000000000004,0.30000000000000004,-0.30000000000000004,0.0,0.0,0.0,0.0,0.0,0.0,0.0,0.0,0.30000000000000004,-0.30000000000000004,0.30000000000000004,0.30000000000000004
3767,0.0,0.0,-0.30000000000000004,-0.30000000000000004,0.30000000000000004,-0.30000000000000004,0.30000000000000004,0.0,0.0,0.0,0.0,0.0,0.0,0.0,0.0,-0.30000000000000004,0.30000000000000004,-0.30000000000000004,0.30000000000000004,0.30000000000000004
3768,0.0,0.0,-0.30000000000000004,-0.30000000000000004,0.30000000000000004,-0.30000000000000004,0.30000000000000004,0.0,0.0,0.0,0.0,0.0,0.0,0.0,0.0,-0.30000000000000004,0.30000000000000004,-0.30000000000000004,0.30000000000000004,0.30000000000000004
3769,0.0,0.0,-0.30000000000000004,-0.30000000000000004,0.30000000000000004,-0.30000000000000004,0.30000000000000004,0.0,-0.30000000000000004,0.0,0.0,0.0,0.0,0.0,0.0,-0.30000000000000004,0.30000000000000004,0.0,0.30000000000000004,0.30000000000000004
3770,0.0,0.30000000000000004,-0.30000000000000004,-0.30000000000000004,0.30000000000000004,-0.30000000000000004,0.30000000000000004,0.0,-0.30000000000000004,0.0,0.0,0.30000000000000004,0.0,0.0,0.0,-0.30000000000000004,0.30000000000000004,0.0,0.0,0.0
3771,0.0,0.30000000000000004,-0.30000000000000004,-0.30000000000000004,0.30000000000000004,0.0,0.0,0.0,-0.30000000000000004,0.0,0.30000000000000004,0.30000000000000004,-0.30000000000000004,0.0,0.0,-0.30000000000000004,0.30000000000000004,0.0,0.0,0.0
3772,0.0,0.30000000000000004,-0.30000000000000004,-0.30000000000000004,0.30000000000000004,0.0,0.0,0.0,-0.30000000000000004,0.0,0.30000000000000004,0.30000000000000004,-0.30000000000000004,0.0,0.0,-0.30000000000000004,0.30000000000000004,0.0,0.0,0.0
3773,0.0,0.30000000000000004,-0.30000000000000004,0.0,0.30000000000000004,0.0,-0.30000000000000004,-0.30000000000000004,0.0,0.0,0.30000000000000004,0.30000000000000004,-0.30000000000000004,0.0,0.0,-0.30000000000000004,0.30000000000000004,0.0,0.0,0.0
3774,0.0,0.30000000000000004,-0.30000000000000004,0.0,0.30000000000000004,-0.30000000000000004,-0.30000000000000004,0.0,0.0,-0.30000000000000004,0.30000000000000004,0.30000000000000004,0.0,0.0,0.0,-0.30000000000000004,0.30000000000000004,0.0,0.0,0.0
3775,0.0,0.30000000000000004,-0.30000000000000004,0.0,0.0,-0.30000000000000004,-0.30000000000000004,0.0,0.0,-0.30000000000000004,0.30000000000000004,0.0,0.0,0.0,0.0,-0.30000000000000004,0.30000000000000004,0.30000000000000004,0.0,0.30000000000000004
3776,0.0,0.30000000000000004,-0.30000000000000004,0.0,0.0,-0.30000000000000004,-0.30000000000000004,0.0,0.0,-0.30000000000000004,0.30000000000000004,0.0,0.0,0.0,0.0,-0.30000000000000004,0.30000000000000004,0.30000000000000004,0.0,0.30000000000000004
3777,0.0,0.30000000000000004,-0.30000000000000004,0.0,-0.30000000000000004,-0.30000000000000004,-0.30000000000000004,0.0,0.0,0.0,0.30000000000000004,0.0,0.30000000000000004,0.0,0.0,-0.30000000000000004,0.30000000000000004,0.30000000000000004,0.0,0.0
3778,0.0,0.30000000000000004,-0.30000000000000004,0.0,0.0,-0.30000000000000004,-0.30000000000000004,0.0,0.0,0.0,0.30000000000000004,-0.30000000000000004,0.30000000000000004,0.0,0.0,-0.30000000000000004,0.30000000000000004,0.30000000000000004,0.0,0.0
3779,-0.30000000000000004,0.30000000000000004,-0.30000000000000004,0.0,0.0,-0.30000000000000004,-0.30000000000000004,0.0,0.0,0.0,0.30000000000000004,0.0,0.0,0.0,0.30000000000000004,-0.30000000000000004,0.30000000000000004,0.30000000000000004,0.0,0.0
3780,-0.30000000000000004,0.30000000000000004,-0.30000000000000004,0.0,0.0,-0.30000000000000004,-0.30000000000000004,0.0,0.0,0.0,0.30000000000000004,-0.30000000000000004,0.0,0.0,0.30000000000000004,0.0,0.30000000000000004,0.30000000000000004,0.0,0.0
3781,-0.30000000000000004,0.30000000000000004,-0.30000000000000004,0.0,0.0,-0.30000000000000004,0.0,0.0,0.0,0.0,0.30000000000000004,-0.30000000000000004,0.0,0.0,0.30000000000000004,0.0,0.30000000000000004,0.30000000000000004,-0.30000000000000004,0.0
3782,-0.30000000000000004,0.0,-0.30000000000000004,0.30000000000000004,0.0,-0.30000000000000004,0.0,0.0,0.0,0.0,0.30000000000000004,-0.30000000000000004,0.0,0.0,0.30000000000000004,0.0,0.30000000000000004,0.30000000000000004,-0.30000000000000004,0.0
3783,-0.30000000000000004,0.0,-0.30000000000000004,0.30000000000000004,0.0,-0.30000000000000004,0.0,0.0,0.0,0.0,0.30000000000000004,-0.30000000000000004,0.0,0.0,0.30000000000000004,0.0,0.30000000000000004,0.30000000000000004,-0.30000000000000004,0.0
3784,-0.1985486022085995,0.0,-0.1985486022085995,0.0,0.0,-0.1985486022085995,0.0,0.0,-0.1985486022085995,0.0,0.1985486022085995,0.1985486022085995,0.0,0.0,0.1985486022085995,0.0,0.1985486022085995,0.1985486022085995,-0.1985486022085995,0.0
3785,-0.19730511417963997,0.0,-0.19730511417963997,0.0,0.0,-0.19730511417963997,0.0,-0.19730511417963997,0.0,0.0,0.19730511417963997,0.19730511417963997,0.0,0.0,0.19730511417963997,0.0,0.19730511417963997,0.19730511417963997,-0.19730511417963997,0.0
3786,-0.1982380554377379,0.0,-0.1982380554377379,0.0,0.0,-0.1982380554377379,0.0,-0.1982380554377379,0.0,0.0,0.1982380554377379,0.1982380554377379,0.0,0.0,0.1982380554377379,0.0,0.1982380554377379,0.1982380554377379,-0.1982380554377379,0.0
3787,0.0,0.0,-0.19279964861683638,0.0,0.0,-0.19279964861683638,0.0,-0.19279964861683638,0.0,0.0,0.19279964861683638,0.19279964861683638,0.0,0.0,0.19279964861683638,0.0,0.19279964861683638,0.19279964861683638,-0.19279964861683638,-0.19279964861683638
3788,0.0,0.0,-0.19385187263499407,0.19385187263499407,0.0,-0.19385187263499407,0.0,0.0,0.0,0.0,0.19385187263499407,0.19385187263499407,0.0,-0.19385187263499407,0.0,0.0,0.19385187263499407,0.19385187263499407,-0.19385187263499407,-0.19385187263499407
3789,0.0,0.0,-0.19174927546925902,0.19174927546925902,0.0,-0.19174927546925902,0.0,0.0,0.0,0.0,0.19174927546925902,0.19174927546925902,0.0,-0.19174927546925902,0.0,0.0,0.19174927546925902,0.19174927546925902,-0.19174927546925902,-0.19174927546925902
3790,0.0,0.0,-0.188443982013031,0.188443982013031,0.0,-0.188443982013031,0.0,0.0,0.0,0.0,0.188443982013031,0.188443982013031,0.0,-0.188443982013031,0.0,0.0,0.188443982013031,0.188443982013031,-0.188443982013031,-0.188443982013031
3791,0.0,0.0,-0.1884440501481026,0.1884440501481026,0.0,-0.1884440501481026,0.0,-0.1884440501481026,0.0,0.0,0.1884440501481026,0.1884440501481026,0.0,-0.1884440501481026,0.0,0.0,0.1884440501481026,0.1884440501481026,-0.1884440501481026,0.0
3792,0.0,0.0,-0.1886132114797987,0.1886132114797987,0.0,-0.1886132114797987,0.0,-0.1886132114797987,0.0,0.0,0.1886132114797987,0.1886132114797987,0.0,-0.1886132114797987,0.0,0.0,0.1886132114797987,0.1886132114797987,-0.1886132114797987,0.0
3793,0.0,0.0,-0.18839113858562812,0.18839113858562812,0.0,-0.18839113858562812,0.0,-0.18839113858562812,0.0,0.0,0.18839113858562812,0.18839113858562812,0.0,-0.18839113858562812,0.0,0.0,0.18839113858562812,0.18839113858562812,-0.18839113858562812,0.0
3794,0.0,0.0,-0.18503538167985584,0.18503538167985584,0.0,-0.18503538167985584,0.0,-0.18503538167985584,0.0,0.0,0.18503538167985584,0.18503538167985584,0.0,-0.18503538167985584,0.0,0.0,0.18503538167985584,0.18503538167985584,-0.18503538167985584,0.0
3795,0.0,0.1839970634878405,-0.1839970634878405,0.1839970634878405,0.0,0.0,0.0,-0.1839970634878405,0.0,-0.1839970634878405,0.1839970634878405,0.1839970634878405,0.0,-0.1839970634878405,0.0,0.0,0.0,0.1839970634878405,-0.1839970634878405,0.0
3796,0.0,0.1851232408247182,-0.1851232408247182,0.0,0.0,-0.1851232408247182,0.1851232408247182,-0.1851232408247182,0.0,0.0,0.1851232408247182,0.1851232408247182,0.0,-0.1851232408247182,0.0,0.0,0.0,0.1851232408247182,-0.1851232408247182,0.0
3797,0.0,0.1854505595421764,-0.1854505595421764,0.0,0.0,-0.1854505595421764,0.1854505595421764,-0.1854505595421764,0.0,0.0,0.1854505595421764,0.1854505595421764,0.0,-0.1854505595421764,0.0,0.0,0.0,0.1854505595421764,-0.1854505595421764,0.0
3798,0.0,0.18637424630019697,-0.18637424630019697,0.0,0.0,-0.18637424630019697,0.18637424630019697,0.0,0.0,-0.18637424630019697,0.18637424630019697,0.18637424630019697,0.0,-0.18637424630019697,0.18637424630019697,0.0,0.0,0.0,-0.18637424630019697,0.0
3799,-0.1864337676566974,0.0,-0.1864337676566974,0.0,0.0,-0.1864337676566974,0.1864337676566974,0.0,0.0,0.0,0.1864337676566974,0.1864337676566974,0.0,-0.1864337676566974,0.1864337676566974,0.0,0.0,0.1864337676566974,-0.1864337676566974,0.0
3800,-0.1890177353310238,0.0,-0.1890177353310238,0.0,0.0,-0.1890177353310238,0.1890177353310238,0.0,0.0,0.0,0.1890177353310238,0.1890177353310238,0.0,-0.1890177353310238,0.1890177353310238,0.0,0.0,0.1890177353310238,-0.1890177353310238,0.0
3801,0.0,0.0,0.0,0.0,0.0,0.0,0.0,0.0,0.0,0.0,0.0,0.0,0.0,0.0,0.0,0.0,0.0,0.0,0.0,0.0
3802,0.0,0.0,-0.18116818410122695,0.18116818410122695,0.18116818410122695,-0.18116818410122695,0.18116818410122695,0.0,0.0,-0.18116818410122695,0.18116818410122695,0.18116818410122695,0.0,-0.18116818410122695,0.0,0.0,0.0,0.0,-0.18116818410122695,0.0
3803,-0.18004305547045205,0.18004305547045205,-0.18004305547045205,0.18004305547045205,0.18004305547045205,-0.18004305547045205,0.18004305547045205,0.0,0.0,0.0,0.0,0.18004305547045205,0.0,-0.18004305547045205,0.0,0.0,0.0,0.0,-0.18004305547045205,0.0
3804,-0.30000000000000004,0.30000000000000004,-0.30000000000000004,0.0,0.30000000000000004,-0.30000000000000004,0.30000000000000004,0.0,0.0,0.0,0.30000000000000004,0.30000000000000004,0.0,-0.30000000000000004,0.0,0.0,0.0,0.0,-0.30000000000000004,0.0
3805,0.0,0.30000000000000004,-0.30000000000000004,0.0,0.30000000000000004,-0.30000000000000004,0.30000000000000004,-0.30000000000000004,0.0,0.0,0.0,0.30000000000000004,0.0,-0.30000000000000004,0.0,0.0,0.30000000000000004,0.0,-0.30000000000000004,0.0
3806,0.0,0.30000000000000004,-0.30000000000000004,0.0,0.30000000000000004,-0.30000000000000004,0.30000000000000004,-0.30000000000000004,0.0,0.0,0.0,0.30000000000000004,0.0,-0.30000000000000004,0.0,0.0,0.30000000000000004,0.0,-0.30000000000000004,0.0
3807,0.0,0.30000000000000004,-0.30000000000000004,0.0,0.30000000000000004,-0.30000000000000004,0.30000000000000004,-0.30000000000000004,0.0,0.0,0.0,0.30000000000000004,0.0,-0.30000000000000004,0.0,0.0,0.30000000000000004,0.0,-0.30000000000000004,0.0
3808,0.0,0.30000000000000004,-0.30000000000000004,0.0,0.30000000000000004,-0.30000000000000004,0.0,-0.30000000000000004,0.0,0.0,0.0,0.30000000000000004,0.0,-0.30000000000000004,0.0,0.0,0.30000000000000004,0.30000000000000004,-0.30000000000000004,0.0
3809,0.0,0.30000000000000004,-0.30000000000000004,0.0,0.30000000000000004,-0.30000000000000004,0.0,-0.30000000000000004,0.0,0.0,0.30000000000000004,0.30000000000000004,0.0,-0.30000000000000004,0.0,0.0,0.30000000000000004,0.0,-0.30000000000000004,0.0
3810,0.0,0.30000000000000004,-0.30000000000000004,-0.30000000000000004,0.0,-0.30000000000000004,0.0,-0.30000000000000004,0.0,0.0,0.30000000000000004,0.30000000000000004,0.0,-0.30000000000000004,0.0,0.0,0.30000000000000004,0.30000000000000004,0.0,0.0
3811,0.0,0.30000000000000004,-0.30000000000000004,-0.30000000000000004,0.0,-0.30000000000000004,0.30000000000000004,-0.30000000000000004,0.0,0.0,0.30000000000000004,0.30000000000000004,0.0,-0.30000000000000004,0.0,0.0,0.30000000000000004,0.0,0.0,0.0
3812,0.0,0.30000000000000004,-0.30000000000000004,-0.30000000000000004,0.0,-0.30000000000000004,0.30000000000000004,-0.30000000000000004,0.0,0.0,0.30000000000000004,0.30000000000000004,0.0,-0.30000000000000004,0.0,0.0,0.30000000000000004,0.0,0.0,0.0
3813,0.0,0.30000000000000004,0.0,-0.30000000000000004,0.0,-0.30000000000000004,0.30000000000000004,-0.30000000000000004,0.0,0.0,0.30000000000000004,0.30000000000000004,0.0,-0.30000000000000004,0.0,-0.30000000000000004,0.30000000000000004,0.0,0.0,0.0
3814,0.0,0.30000000000000004,-0.30000000000000004,-0.30000000000000004,0.0,0.0,0.30000000000000004,-0.30000000000000004,0.0,0.0,0.0,0.30000000000000004,0.0,-0.30000000000000004,0.0,-0.30000000000000004,0.30000000000000004,0.0,0.0,0.30000000000000004
3815,0.0,0.30000000000000004,-0.30000000000000004,-0.30000000000000004,0.0,0.0,0.0,-0.30000000000000004,0.0,0.0,0.30000000000000004,0.30000000000000004,0.0,-0.30000000000000004,0.0,-0.30000000000000004,0.30000000000000004,0.0,0.0,0.30000000000000004
3816,0.0,0.30000000000000004,-0.30000000000000004,-0.30000000000000004,0.30000000000000004,0.0,0.0,0.0,0.0,0.0,0.0,0.30000000000000004,-0.30000000000000004,-0.30000000000000004,0.0,-0.30000000000000004,0.30000000000000004,0.0,0.0,0.30000000000000004
3817,0.0,0.30000000000000004,-0.30000000000000004,-0.30000000000000004,0.0,0.0,0.0,0.30000000000000004,0.0,0.0,0.0,0.30000000000000004,-0.30000000000000004,-0.30000000000000004,0.0,-0.30000000000000004,0.30000000000000004,0.0,0.0,0.30000000000000004
3818,-0.30000000000000004,0.30000000000000004,-0.30000000000000004,-0.30000000000000004,0.0,0.0,0.0,0.30000000000000004,0.0,0.0,0.0,0.30000000000000004,-0.30000000000000004,-0.30000000000000004,0.0,0.0,0.30000000000000004,0.0,0.0,0.30000000000000004
3819,-0.30000000000000004,0.30000000000000004,-0.30000000000000004,-0.30000000000000004,0.0,0.0,0.0,0.30000000000000004,0.0,0.0,0.0,0.30000000000000004,-0.30000000000000004,-0.30000000000000004,0.0,0.0,0.30000000000000004,0.0,0.0,0.30000000000000004
3820,-0.30000000000000004,0.30000000000000004,0.0,0.0,0.0,0.0,0.0,0.30000000000000004,0.0,0.0,-0.30000000000000004,0.30000000000000004,-0.30000000000000004,-0.30000000000000004,0.0,-0.30000000000000004,0.30000000000000004,0.0,0.0,0.30000000000000004
3821,-0.30000000000000004,0.30000000000000004,0.0,0.0,0.30000000000000004,0.0,0.0,0.30000000000000004,0.0,0.0,-0.30000000000000004,0.30000000000000004,-0.30000000000000004,-0.30000000000000004,0.0,-0.30000000000000004,0.0,0.0,0.0,0.30000000000000004
3822,-0.30000000000000004,0.30000000000000004,0.0,0.0,0.30000000000000004,0.0,0.0,0.30000000000000004,0.0,0.0,-0.30000000000000004,0.0,-0.30000000000000004,-0.30000000000000004,0.0,-0.30000000000000004,0.0,0.30000000000000004,0.0,0.30000000000000004
3823,-0.30000000000000004,0.30000000000000004,0.0,0.0,0.30000000000000004,0.0,0.0,0.30000000000000004,0.0,0.0,-0.30000000000000004,0.0,-0.30000000000000004,-0.30000000000000004,0.0,-0.30000000000000004,0.0,0.30000000000000004,0.0,0.30000000000000004
3824,-0.30000000000000004,0.30000000000000004,0.0,0.0,0.30000000000000004,0.0,0.0,0.30000000000000004,0.0,0.0,-0.30000000000000004,0.0,-0.30000000000000004,-0.30000000000000004,0.0,-0.30000000000000004,0.0,0.30000000000000004,0.0,0.30000000000000004
3825,-0.30000000000000004,0.0,0.0,0.0,0.30000000000000004,0.0,0.0,0.30000000000000004,0.0,-0.30000000000000004,-0.30000000000000004,0.0,-0.30000000000000004,-0.30000000000000004,0.0,0.0,0.0,0.30000000000000004,0.30000000000000004,0.30000000000000004
3826,-0.30000000000000004,0.0,0.0,0.0,0.30000000000000004,0.0,0.0,0.30000000000000004,0.0,-0.30000000000000004,-0.30000000000000004,0.0,0.0,-0.30000000000000004,-0.30000000000000004,0.0,0.0,0.30000000000000004,0.30000000000000004,0.30000000000000004
3827,-0.30000000000000004,0.0,-0.30000000000000004,0.30000000000000004,0.30000000000000004,0.0,0.0,0.30000000000000004,0.0,-0.30000000000000004,-0.30000000000000004,0.0,0.0,0.0,-0.30000000000000004,0.0,0.0,0.30000000000000004,0.30000000000000004,0.0
3828,0.0,0.0,0.0,0.0,0.0,0.0,0.0,0.0,0.0,0.0,0.0,0.0,0.0,0.0,0.0,0.0,0.0,0.0,0.0,0.0
3829,-0.30000000000000004,0.0,-0.30000000000000004,0.30000000000000004,0.30000000000000004,0.0,0.0,0.30000000000000004,0.0,-0.30000000000000004,0.0,0.0,-0.30000000000000004,0.0,-0.30000000000000004,0.0,0.0,0.30000000000000004,0.30000000000000004,0.0
3830,-0.30000000000000004,0.0,-0.30000000000000004,0.30000000000000004,0.30000000000000004,0.0,0.0,0.30000000000000004,0.0,-0.30000000000000004,0.0,0.0,-0.30000000000000004,0.0,0.0,0.0,-0.30000000000000004,0.30000000000000004,0.0,0.30000000000000004
3831,-0.30000000000000004,0.0,-0.30000000000000004,0.30000000000000004,0.30000000000000004,0.0,0.0,0.30000000000000004,0.0,-0.30000000000000004,0.0,0.0,-0.30000000000000004,0.0,0.0,0.0,-0.30000000000000004,0.30000000000000004,0.0,0.30000000000000004
3832,-0.30000000000000004,0.0,-0.30000000000000004,0.30000000000000004,0.30000000000000004,0.0,0.0,0.30000000000000004,0.0,-0.30000000000000004,-0.30000000000000004,0.0,0.0,0.0,0.0,0.0,-0.30000000000000004,0.30000000000000004,0.0,0.30000000000000004
3833,-0.30000000000000004,0.0,-0.30000000000000004,0.30000000000000004,0.0,0.0,0.0,0.30000000000000004,0.0,-0.30000000000000004,-0.30000000000000004,0.0,0.0,0.0,0.0,0.30000000000000004,-0.30000000000000004,0.30000000000000004,0.0,0.30000000000000004
3834,-0.30000000000000004,0.0,-0.30000000000000004,0.30000000000000004,0.0,0.0,0.0,0.30000000000000004,0.0,-0.30000000000000004,-0.30000000000000004,0.0,0.0,0.0,0.30000000000000004,0.0,-0.30000000000000004,0.30000000000000004,0.0,0.30000000000000004
3835,-0.30000000000000004,0.0,-0.30000000000000004,0.30000000000000004,0.0,0.0,0.0,0.30000000000000004,0.0,-0.30000000000000004,0.0,0.0,0.0,-0.30000000000000004,0.30000000000000004,0.30000000000000004,-0.30000000000000004,0.0,0.0,0.30000000000000004
3836,-0.30000000000000004,0.0,-0.30000000000000004,0.30000000000000004,0.30000000000000004,0.0,0.0,0.30000000000000004,0.0,-0.30000000000000004,0.0,-0.30000000000000004,0.0,0.0,0.0,0.30000000000000004,-0.30000000000000004,0.0,0.0,0.30000000000000004
3837,-0.30000000000000004,0.0,-0.30000000000000004,0.30000000000000004,0.30000000000000004,0.0,0.0,0.30000000000000004,0.0,-0.30000000000000004,0.0,-0.30000000000000004,0.0,0.0,0.0,0.0,-0.30000000000000004,0.0,0.30000000000000004,0.30000000000000004
3838,0.0,0.0,-0.30000000000000004,0.30000000000000004,0.0,0.0,0.0,0.30000000000000004,0.0,-0.30000000000000004,0.0,-0.30000000000000004,0.0,-0.30000000000000004,0.30000000000000004,0.0,-0.30000000000000004,0.0,0.30000000000000004,0.30000000000000004
3839,0.0,0.0,-0.30000000000000004,0.30000000000000004,0.0,0.0,0.0,0.30000000000000004,0.0,-0.30000000000000004,0.0,-0.30000000000000004,0.0,-0.30000000000000004,0.30000000000000004,0.0,-0.30000000000000004,0.0,0.30000000000000004,0.30000000000000004
3840,0.0,0.0,-0.30000000000000004,0.30000000000000004,0.0,0.0,0.0,0.30000000000000004,0.0,-0.30000000000000004,0.0,-0.30000000000000004,0.0,-0.30000000000000004,0.30000000000000004,0.0,-0.30000000000000004,0.0,0.30000000000000004,0.30000000000000004
3841,0.0,-0.30000000000000004,-0.30000000000000004,0.30000000000000004,0.0,0.0,0.0,0.0,0.0,0.0,0.0,-0.30000000000000004,0.30000000000000004,-0.30000000000000004,0.30000000000000004,0.0,-0.30000000000000004,0.0,0.30000000000000004,0.30000000000000004
3842,0.0,-0.30000000000000004,-0.30000000000000004,0.30000000000000004,0.0,0.0,0.30000000000000004,0.0,0.0,0.0,0.0,-0.30000000000000004,0.30000000000000004,-0.30000000000000004,0.30000000000000004,0.0,-0.30000000000000004,0.0,0.30000000000000004,0.0
3843,0.0,-0.30000000000000004,-0.30000000000000004,0.0,0.0,0.0,0.30000000000000004,0.0,0.0,0.0,0.0,-0.30000000000000004,0.30000000000000004,-0.30000000000000004,0.30000000000000004,0.0,-0.30000000000000004,0.0,0.30000000000000004,0.30000000000000004
3844,0.0,-0.30000000000000004,-0.30000000000000004,0.0,0.0,0.0,0.30000000000000004,0.0,0.0,0.0,0.30000000000000004,0.0,0.30000000000000004,-0.30000000000000004,0.30000000000000004,0.0,-0.30000000000000004,-0.30000000000000004,0.30000000000000004,0.0
3845,0.0,0.0,-0.30000000000000004,0.0,-0.30000000000000004,0.30000000000000004,0.30000000000000004,0.0,0.0,0.0,0.0,0.0,0.30000000000000004,-0.30000000000000004,0.30000000000000004,0.0,-0.30000000000000004,-0.30000000000000004,0.30000000000000004,0.0
3846,0.0,0.0,-0.30000000000000004,0.0,-0.30000000000000004,0.30000000000000004,0.0,0.0,0.0,0.0,0.30000000000000004,0.0,0.30000000000000004,-0.30000000000000004,0.30000000000000004,0.0,-0.30000000000000004,-0.30000000000000004,0.30000000000000004,0.0
3847,0.0,0.0,-0.30000000000000004,-0.30000000000000004,-0.30000000000000004,0.30000000000000004,0.0,0.0,0.0,0.0,0.30000000000000004,0.0,0.30000000000000004,0.0,0.30000000000000004,0.0,-0.30000000000000004,-0.30000000000000004,0.30000000000000004,0.0
3848,0.0,0.0,0.0,-0.30000000000000004,-0.30000000000000004,0.30000000000000004,0.30000000000000004,0.0,0.0,0.0,0.30000000000000004,0.0,0.30000000000000004,0.0,0.30000000000000004,-0.30000000000000004,-0.30000000000000004,-0.30000000000000004,0.0,0.0
3849,0.0,0.0,0.0,-0.30000000000000004,-0.30000000000000004,0.0,0.30000000000000004,0.0,0.0,0.0,0.30000000000000004,0.0,0.30000000000000004,0.0,0.30000000000000004,-0.30000000000000004,-0.30000000000000004,-0.30000000000000004,0.30000000000000004,0.0
3850,0.0,0.0,0.0,-0.30000000000000004,-0.30000000000000004,0.0,0.30000000000000004,0.0,0.0,0.0,0.30000000000000004,0.0,0.30000000000000004,0.0,0.30000000000000004,-0.30000000000000004,-0.30000000000000004,-0.30000000000000004,0.30000000000000004,0.0
3851,0.30000000000000004,0.0,-0.30000000000000004,-0.30000000000000004,-0.30000000000000004,0.0,0.30000000000000004,0.0,0.0,0.0,0.0,0.0,0.30000000000000004,0.0,0.30000000000000004,-0.30000000000000004,0.0,-0.30000000000000004,0.30000000000000004,0.0
3852,0.30000000000000004,-0.30000000000000004,0.0,-0.30000000000000004,-0.30000000000000004,0.0,0.30000000000000004,0.0,0.0,0.0,0.0,0.0,0.30000000000000004,0.0,0.30000000000000004,-0.30000000000000004,0.0,-0.30000000000000004,0.30000000000000004,0.0
3853,0.30000000000000004,-0.30000000000000004,0.0,-0.30000000000000004,-0.30000000000000004,0.0,0.30000000000000004,0.0,0.0,0.0,0.0,0.0,0.30000000000000004,0.0,0.30000000000000004,-0.30000000000000004,0.0,-0.30000000000000004,0.30000000000000004,0.0
3854,0.0,-0.30000000000000004,0.0,-0.30000000000000004,-0.30000000000000004,0.0,0.30000000000000004,0.0,0.0,0.0,0.0,0.0,0.30000000000000004,0.0,0.30000000000000004,-0.30000000000000004,0.0,-0.30000000000000004,0.30000000000000004,0.30000000000000004
3855,0.0,0.0,0.0,-0.30000000000000004,-0.30000000000000004,0.30000000000000004,0.0,0.0,-0.30000000000000004,0.0,0.0,0.0,0.30000000000000004,0.0,0.30000000000000004,-0.30000000000000004,0.0,-0.30000000000000004,0.30000000000000004,0.30000000000000004
3856,0.0,0.0,0.0,-0.30000000000000004,-0.30000000000000004,0.30000000000000004,0.0,0.0,-0.30000000000000004,-0.30000000000000004,0.0,0.30000000000000004,0.30000000000000004,0.0,0.30000000000000004,0.0,0.0,-0.30000000000000004,0.30000000000000004,0.0
3857,0.0,0.30000000000000004,-0.30000000000000004,-0.30000000000000004,-0.30000000000000004,0.30000000000000004,0.0,0.0,-0.30000000000000004,0.0,0.0,0.30000000000000004,0.0,0.0,0.30000000000000004,0.0,0.0,-0.30000000000000004,0.30000000000000004,0.0
3858,0.0,0.30000000000000004,-0.30000000000000004,-0.30000000000000004,-0.30000000000000004,0.30000000000000004,0.0,0.0,-0.30000000000000004,0.0,0.30000000000000004,0.30000000000000004,0.0,0.0,0.30000000000000004,0.0,0.0,-0.30000000000000004,0.0,0.0
3859,0.0,0.30000000000000004,-0.30000000000000004,-0.30000000000000004,-0.30000000000000004,0.30000000000000004,0.0,0.0,-0.30000000000000004,0.0,0.30000000000000004,0.30000000000000004,0.0,0.0,0.30000000000000004,0.0,0.0,-0.30000000000000004,0.0,0.0
3860,0.0,0.30000000000000004,-0.30000000000000004,-0.30000000000000004,-0.30000000000000004,0.0,0.0,0.0,-0.30000000000000004,0.0,0.30000000000000004,0.30000000000000004,0.0,0.0,0.30000000000000004,0.0,0.30000000000000004,-0.30000000000000004,0.0,0.0
3861,0.0,0.30000000000000004,-0.30000000000000004,-0.30000000000000004,-0.30000000000000004,0.30000000000000004,0.0,0.0,-0.30000000000000004,0.0,0.30000000000000004,0.30000000000000004,0.0,0.0,0.30000000000000004,0.0,0.0,-0.30000000000000004,0.0,0.0
3862,0.0,0.30000000000000004,-0.30000000000000004,-0.30000000000000004,-0.30000000000000004,0.30000000000000004,0.0,0.0,-0.30000000000000004,0.0,0.30000000000000004,0.30000000000000004,0.0,0.0,0.30000000000000004,0.0,0.0,-0.30000000000000004,0.0,0.0
3863,-0.30000000000000004,0.30000000000000004,-0.30000000000000004,-0.30000000000000004,-0.30000000000000004,0.30000000000000004,0.0,0.0,0.0,0.0,0.30000000000000004,0.30000000000000004,0.0,0.0,0.30000000000000004,0.0,0.0,-0.30000000000000004,0.0,0.0
3864,-0.30000000000000004,0.30000000000000004,-0.30000000000000004,-0.30000000000000004,-0.30000000000000004,0.0,0.0,0.0,0.0,0.0,0.30000000000000004,0.30000000000000004,0.0,0.0,0.30000000000000004,0.0,0.0,-0.30000000000000004,0.30000000000000004,0.0
3865,-0.30000000000000004,0.30000000000000004,-0.30000000000000004,-0.30000000000000004,-0.30000000000000004,0.0,0.0,-0.30000000000000004,0.0,0.0,0.30000000000000004,0.30000000000000004,0.0,0.0,0.30000000000000004,0.0,0.0,0.0,0.30000000000000004,0.0
3866,-0.30000000000000004,0.30000000000000004,-0.30000000000000004,-0.30000000000000004,-0.30000000000000004,0.30000000000000004,0.0,-0.30000000000000004,0.0,0.0,0.30000000000000004,0.30000000000000004,0.0,0.0,0.0,0.0,0.0,0.0,0.30000000000000004,0.0
3867,-0.30000000000000004,0.30000000000000004,-0.30000000000000004,-0.30000000000000004,0.0,0.0,0.30000000000000004,-0.30000000000000004,0.0,0.0,0.30000000000000004,0.30000000000000004,0.0,0.0,0.0,-0.30000000000000004,0.0,0.0,0.30000000000000004,0.0
3868,-0.30000000000000004,0.30000000000000004,-0.30000000000000004,0.0,0.0,0.0,0.30000000000000004,-0.30000000000000004,0.0,0.0,0.30000000000000004,0.30000000000000004,0.0,0.0,0.0,-0.30000000000000004,0.0,0.0,0.30000000000000004,-0.30000000000000004
3869,-0.30000000000000004,0.30000000000000004,-0.30000000000000004,0.0,0.0,0.30000000000000004,0.30000000000000004,-0.30000000000000004,0.0,0.0,0.30000000000000004,0.0,0.0,0.0,0.0,-0.30000000000000004,0.0,0.0,0.30000000000000004,-0.30000000000000004
3870,-0.30000000000000004,0.0,0.0,0.0,0.30000000000000004,0.30000000000000004,0.30000000000000004,-0.30000000000000004,-0.30000000000000004,0.0,0.30000000000000004,0.0,0.0,0.0,0.0,-0.30000000000000004,0.0,0.0,0.30000000000000004,-0.30000000000000004
3871,-0.30000000000000004,0.0,0.0,0.0,0.30000000000000004,0.30000000000000004,0.30000000000000004,-0.30000000000000004,-0.30000000000000004,0.0,0.30000000000000004,0.0,0.0,0.0,0.0,-0.30000000000000004,0.30000000000000004,0.0,0.0,-0.30000000000000004
3872,-0.30000000000000004,0.0,0.0,0.0,0.30000000000000004,0.30000000000000004,0.30000000000000004,-0.30000000000000004,-0.30000000000000004,0.0,0.30000000000000004,0.0,0.0,0.0,0.0,-0.30000000000000004,0.30000000000000004,0.0,0.0,-0.30000000000000004
3873,-0.30000000000000004,0.0,0.0,0.0,0.30000000000000004,0.30000000000000004,0.30000000000000004,-0.30000000000000004,-0.30000000000000004,0.0,0.30000000000000004,0.0,0.0,0.0,0.0,-0.30000000000000004,0.0,0.30000000000000004,0.0,-0.30000000000000004
3874,-0.30000000000000004,0.0,0.0,0.0,0.30000000000000004,0.30000000000000004,0.30000000000000004,-0.30000000000000004,-0.30000000000000004,0.0,0.30000000000000004,0.0,0.0,0.0,0.0,-0.30000000000000004,0.0,0.30000000000000004,0.0,-0.30000000000000004
3875,-0.30000000000000004,0.0,0.0,0.0,0.30000000000000004,0.30000000000000004,0.30000000000000004,-0.30000000000000004,0.0,0.0,0.30000000000000004,0.0,-0.30000000000000004,0.0,0.0,-0.30000000000000004,0.0,0.30000000000000004,0.0,-0.30000000000000004
3876,-0.30000000000000004,0.0,0.0,0.0,0.30000000000000004,0.30000000000000004,0.30000000000000004,-0.30000000000000004,-0.30000000000000004,0.0,0.30000000000000004,0.0,-0.30000000000000004,0.0,0.0,-0.30000000000000004,0.0,0.30000000000000004,0.0,0.0
3877,-0.30000000000000004,0.0,0.0,0.0,0.30000000000000004,0.30000000000000004,0.0,0.0,-0.30000000000000004,0.0,0.0,0.0,-0.30000000000000004,0.30000000000000004,0.30000000000000004,-0.30000000000000004,-0.30000000000000004,0.30000000000000004,0.0,0.0
3878,-0.30000000000000004,0.0,0.0,0.0,0.30000000000000004,0.30000000000000004,0.0,0.30000000000000004,-0.30000000000000004,0.0,0.0,0.0,-0.30000000000000004,0.30000000000000004,0.0,-0.30000000000000004,-0.30000000000000004,0.30000000000000004,0.0,0.0
3879,-0.30000000000000004,0.0,0.0,0.0,0.30000000000000004,0.30000000000000004,0.0,0.30000000000000004,0.0,0.0,-0.30000000000000004,0.0,-0.30000000000000004,0.30000000000000004,0.0,-0.30000000000000004,-0.30000000000000004,0.30000000000000004,0.0,0.0
3880,-0.30000000000000004,0.30000000000000004,0.0,0.0,0.30000000000000004,0.30000000000000004,0.0,0.30000000000000004,0.0,0.0,-0.30000000000000004,0.0,-0.30000000000000004,0.0,0.0,-0.30000000000000004,-0.30000000000000004,0.30000000000000004,0.0,0.0
3881,-0.30000000000000004,0.0,0.0,0.0,0.30000000000000004,0.30000000000000004,0.0,0.30000000000000004,0.0,0.30000000000000004,-0.30000000000000004,0.0,-0.30000000000000004,0.0,0.0,-0.30000000000000004,-0.30000000000000004,0.30000000000000004,0.0,0.0
3882,0.0,0.0,0.0,0.0,0.30000000000000004,0.30000000000000004,0.0,0.30000000000000004,0.30000000000000004,0.30000000000000004,-0.30000000000000004,0.0,-0.30000000000000004,0.0,0.0,-0.30000000000000004,-0.30000000000000004,0.0,-0.30000000000000004,0.0
3883,0.0,0.0,0.0,0.0,0.30000000000000004,0.30000000000000004,0.0,0.30000000000000004,0.30000000000000004,0.30000000000000004,-0.30000000000000004,0.0,-0.30000000000000004,0.0,0.0,-0.30000000000000004,-0.30000000000000004,0.0,-0.30000000000000004,0.0
3884,0.0,0.0,0.30000000000000004,0.0,0.0,0.30000000000000004,0.0,0.30000000000000004,0.30000000000000004,0.30000000000000004,-0.30000000000000004,0.0,-0.30000000000000004,0.0,0.0,-0.30000000000000004,-0.30000000000000004,0.0,-0.30000000000000004,0.0
3885,0.0,0.0,0.30000000000000004,0.0,0.0,0.30000000000000004,0.0,0.30000000000000004,0.30000000000000004,0.30000000000000004,-0.30000000000000004,0.0,-0.30000000000000004,0.0,0.0,-0.30000000000000004,-0.30000000000000004,0.0,-0.30000000000000004,0.0
3886,0.0,0.0,0.2951065288572569,0.2951065288572569,0.0,0.2951065288572569,0.0,0.2951065288572569,0.0,0.2951065288572569,-0.2951065288572569,0.0,-0.2951065288572569,0.0,0.0,-0.2951065288572569,-0.2951065288572569,0.0,-0.2951065288572569,0.0
3887,0.0,0.0,0.28307953511862033,0.28307953511862033,0.0,0.28307953511862033,0.0,0.28307953511862033,0.0,0.28307953511862033,-0.28307953511862033,0.0,-0.28307953511862033,0.0,0.0,-0.28307953511862033,-0.28307953511862033,0.0,-0.28307953511862033,0.0
3888,0.0,0.0,0.28314619135367924,0.28314619135367924,0.0,0.0,0.0,0.28314619135367924,0.28314619135367924,0.28314619135367924,-0.28314619135367924,0.0,-0.28314619135367924,0.0,0.0,-0.28314619135367924,-0.28314619135367924,0.0,-0.28314619135367924,0.0
3889,0.0,0.2912478902705082,0.2912478902705082,0.2912478902705082,0.0,0.0,0.0,0.0,0.2912478902705082,0.2912478902705082,-0.2912478902705082,0.0,-0.2912478902705082,0.0,0.0,-0.2912478902705082,-0.2912478902705082,0.0,-0.2912478902705082,0.0
3890,0.0,0.29137710947210693,0.29137710947210693,0.0,0.0,0.0,0.0,0.0,0.29137710947210693,0.29137710947210693,-0.29137710947210693,0.29137710947210693,-0.29137710947210693,0.0,0.0,-0.29137710947210693,-0.29137710947210693,0.0,-0.29137710947210693,0.0
3891,0.2807439217683942,0.2807439217683942,0.0,0.0,0.0,0.0,0.0,0.0,0.2807439217683942,0.2807439217683942,-0.2807439217683942,0.2807439217683942,-0.2807439217683942,0.0,0.0,-0.2807439217683942,-0.2807439217683942,0.0,-0.2807439217683942,0.0
3892,0.28071603545819473,0.28071603545819473,0.0,0.0,-0.28071603545819473,0.0,0.0,0.0,0.28071603545819473,0.28071603545819473,-0.28071603545819473,0.28071603545819473,-0.28071603545819473,0.0,0.0,-0.28071603545819473,0.0,-0.28071603545819473,0.0,0.0
3893,0.27200405735561917,0.27200405735561917,0.0,0.0,-0.27200405735561917,0.0,0.0,0.0,0.27200405735561917,0.27200405735561917,-0.27200405735561917,0.27200405735561917,-0.27200405735561917,0.0,0.0,-0.27200405735561917,0.0,-0.27200405735561917,0.0,0.0
3894,0.0,0.0,0.0,0.0,0.0,0.0,0.0,0.0,0.0,0.0,0.0,0.0,0.0,0.0,0.0,0.0,0.0,0.0,0.0,0.0
3895,0.2726250780324481,0.2726250780324481,0.0,0.0,-0.2726250780324481,0.0,0.0,0.0,0.2726250780324481,0.2726250780324481,-0.2726250780324481,0.2726250780324481,-0.2726250780324481,0.0,0.0,-0.2726250780324481,0.0,-0.2726250780324481,0.0,0.0
3896,0.30000000000000004,0.30000000000000004,0.0,0.0,-0.30000000000000004,0.0,-0.30000000000000004,0.0,0.30000000000000004,0.30000000000000004,-0.30000000000000004,0.30000000000000004,0.0,0.0,0.0,-0.30000000000000004,0.0,-0.30000000000000004,0.0,0.0
3897,0.30000000000000004,0.30000000000000004,0.0,0.0,-0.30000000000000004,0.0,-0.30000000000000004,0.0,0.30000000000000004,0.30000000000000004,-0.30000000000000004,0.30000000000000004,0.0,0.0,0.0,-0.30000000000000004,0.0,-0.30000000000000004,0.0,0.0
3898,0.30000000000000004,0.30000000000000004,0.0,0.0,-0.30000000000000004,0.0,-0.30000000000000004,0.0,0.30000000000000004,0.30000000000000004,-0.30000000000000004,0.30000000000000004,0.0,0.0,0.0,-0.30000000000000004,0.0,-0.30000000000000004,0.0,0.0
3899,0.30000000000000004,0.30000000000000004,0.0,0.0,-0.30000000000000004,0.0,-0.30000000000000004,0.0,0.0,0.30000000000000004,-0.30000000000000004,0.30000000000000004,0.0,0.0,0.0,-0.30000000000000004,0.0,-0.30000000000000004,0.30000000000000004,0.0
3900,0.30000000000000004,0.30000000000000004,0.0,0.0,-0.30000000000000004,0.0,0.0,0.0,0.0,0.30000000000000004,-0.30000000000000004,0.30000000000000004,0.0,0.0,-0.30000000000000004,-0.30000000000000004,0.0,-0.30000000000000004,0.30000000000000004,0.0
3901,0.30000000000000004,0.30000000000000004,0.0,0.0,-0.30000000000000004,0.0,0.0,0.0,0.0,0.30000000000000004,-0.30000000000000004,0.30000000000000004,0.0,0.0,0.0,-0.30000000000000004,0.0,-0.30000000000000004,0.30000000000000004,-0.30000000000000004
3902,0.0,0.0,0.0,0.0,0.0,0.0,0.0,0.0,0.0,0.0,0.0,0.0,0.0,0.0,0.0,0.0,0.0,0.0,0.0,0.0
3903,0.30000000000000004,0.30000000000000004,0.0,0.0,-0.30000000000000004,0.0,0.0,-0.30000000000000004,0.0,0.30000000000000004,-0.30000000000000004,0.30000000000000004,0.0,0.0,0.0,0.0,0.0,-0.30000000000000004,0.30000000000000004,-0.30000000000000004
3904,0.30000000000000004,0.30000000000000004,0.0,0.0,-0.30000000000000004,0.0,0.0,-0.30000000000000004,0.0,0.30000000000000004,0.0,0.30000000000000004,0.0,0.0,-0.30000000000000004,0.0,0.0,-0.30000000000000004,0.30000000000000004,-0.30000000000000004
3905,0.30000000000000004,0.30000000000000004,0.30000000000000004,0.0,-0.30000000000000004,0.0,0.0,-0.30000000000000004,0.0,0.0,0.0,0.30000000000000004,0.0,0.0,-0.30000000000000004,0.0,0.0,-0.30000000000000004,0.30000000000000004,-0.30000000000000004
3906,0.30000000000000004,0.30000000000000004,0.30000000000000004,0.0,-0.30000000000000004,0.0,0.0,-0.30000000000000004,0.0,0.0,0.0,0.30000000000000004,0.0,0.0,0.0,-0.30000000000000004,0.0,-0.30000000000000004,0.30000000000000004,-0.30000000000000004
3907,0.30000000000000004,0.30000000000000004,0.30000000000000004,-0.30000000000000004,-0.30000000000000004,0.0,0.0,-0.30000000000000004,0.0,0.0,0.0,0.30000000000000004,0.0,0.0,0.0,0.0,0.0,-0.30000000000000004,0.30000000000000004,-0.30000000000000004
3908,0.30000000000000004,0.30000000000000004,0.30000000000000004,-0.30000000000000004,-0.30000000000000004,0.0,0.0,-0.30000000000000004,0.0,0.0,0.0,0.30000000000000004,0.0,0.0,0.0,0.0,0.0,-0.30000000000000004,0.30000000000000004,-0.30000000000000004
3909,0.30000000000000004,0.30000000000000004,0.30000000000000004,-0.30000000000000004,-0.30000000000000004,0.0,0.0,-0.30000000000000004,0.0,0.0,0.0,0.0,0.0,0.0,0.0,0.0,0.30000000000000004,-0.30000000000000004,0.30000000000000004,-0.30000000000000004
3910,0.30000000000000004,0.30000000000000004,0.30000000000000004,-0.30000000000000004,-0.30000000000000004,0.0,0.0,-0.30000000000000004,0.0,0.0,0.0,0.0,0.0,0.0,0.0,0.0,0.30000000000000004,-0.30000000000000004,0.30000000000000004,-0.30000000000000004
3911,0.30000000000000004,0.30000000000000004,0.30000000000000004,-0.30000000000000004,-0.30000000000000004,0.0,0.0,-0.30000000000000004,0.0,0.0,0.0,0.0,0.0,0.0,0.0,0.0,0.30000000000000004,-0.30000000000000004,0.30000000000000004,-0.30000000000000004
3912,0.30000000000000004,0.0,0.30000000000000004,-0.30000000000000004,-0.30000000000000004,0.0,0.0,-0.30000000000000004,0.0,0.30000000000000004,0.0,0.0,0.0,0.0,0.0,0.0,0.30000000000000004,-0.30000000000000004,0.30000000000000004,-0.30000000000000004
3913,0.30000000000000004,0.0,0.30000000000000004,0.0,-0.30000000000000004,0.0,-0.30000000000000004,-0.30000000000000004,0.0,0.30000000000000004,0.0,0.0,0.0,0.0,0.0,0.0,0.30000000000000004,-0.30000000000000004,0.30000000000000004,-0.30000000000000004
3914,0.30000000000000004,0.0,0.30000000000000004,0.0,-0.30000000000000004,0.0,-0.30000000000000004,-0.30000000000000004,0.30000000000000004,0.0,0.0,0.0,0.0,0.0,-0.30000000000000004,0.0,0.30000000000000004,0.0,0.30000000000000004,-0.30000000000000004
3915,0.30000000000000004,0.0,0.30000000000000004,0.0,-0.30000000000000004,0.0,-0.30000000000000004,-0.30000000000000004,0.30000000000000004,0.0,0.0,0.0,0.0,0.0,-0.30000000000000004,0.0,0.30000000000000004,0.0,0.30000000000000004,-0.30000000000000004
3916,0.0,-0.30000000000000004,0.30000000000000004,0.0,-0.30000000000000004,0.30000000000000004,0.0,-0.30000000000000004,0.30000000000000004,0.0,0.0,0.0,0.0,0.0,-0.30000000000000004,0.0,0.30000000000000004,0.0,0.30000000000000004,-0.30000000000000004
3917,0.0,-0.30000000000000004,0.30000000000000004,0.0,-0.30000000000000004,0.30000000000000004,0.0,-0.30000000000000004,0.30000000000000004,0.0,0.0,0.0,0.0,0.0,-0.30000000000000004,0.0,0.30000000000000004,0.0,0.30000000000000004,-0.30000000000000004
3918,0.0,-0.30000000000000004,0.30000000000000004,0.0,-0.30000000000000004,0.30000000000000004,0.0,-0.30000000000000004,0.30000000000000004,0.0,0.0,0.0,0.0,0.0,-0.30000000000000004,0.0,0.30000000000000004,0.0,0.30000000000000004,-0.30000000000000004
3919,0.0,-0.30000000000000004,0.30000000000000004,0.0,-0.30000000000000004,0.30000000000000004,0.0,-0.30000000000000004,0.30000000000000004,0.0,0.0,0.0,0.0,0.30000000000000004,-0.30000000000000004,0.0,0.30000000000000004,0.0,0.0,-0.30000000000000004
3920,0.0,0.0,0.0,0.0,0.0,0.0,0.0,0.0,0.0,0.0,0.0,0.0,0.0,0.0,0.0,0.0,0.0,0.0,0.0,0.0
3921,0.0,-0.2594648627232555,0.2594648627232555,-0.2594648627232555,0.0,0.2594648627232555,0.0,-0.2594648627232555,0.0,0.0,0.0,0.0,0.0,0.2594648627232555,-0.2594648627232555,0.0,0.2594648627232555,0.0,0.2594648627232555,-0.2594648627232555
3922,0.0,0.0,0.22508578473859342,-0.22508578473859342,0.0,0.22508578473859342,0.22508578473859342,-0.22508578473859342,0.0,-0.22508578473859342,0.0,0.0,0.0,0.22508578473859342,-0.22508578473859342,0.0,0.22508578473859342,0.0,0.0,-0.22508578473859342
